<?xml version="1.0" encoding="UTF-8" standalone="yes"?>
<PMML xmlns="http://www.dmg.org/PMML-4_4" xmlns:data="http://jpmml.org/jpmml-model/InlineTable" version="4.4">
	<Header>
		<Application name="SkLearn2PMML package" version="0.113.0"/>
		<Timestamp>2025-02-27T07:10:14Z</Timestamp>
	</Header>
	<DataDictionary>
		<DataField name="y" optype="continuous" dataType="double"/>
		<DataField name="c1" optype="continuous" dataType="double"/>
		<DataField name="c2" optype="continuous" dataType="double"/>
		<DataField name="c3" optype="continuous" dataType="double"/>
		<DataField name="c4" optype="continuous" dataType="double"/>
		<DataField name="c5" optype="continuous" dataType="double"/>
		<DataField name="c6" optype="continuous" dataType="double"/>
		<DataField name="c7" optype="continuous" dataType="double"/>
		<DataField name="c8" optype="continuous" dataType="double"/>
		<DataField name="c9" optype="continuous" dataType="double"/>
		<DataField name="c10" optype="continuous" dataType="double"/>
		<DataField name="c11" optype="continuous" dataType="double"/>
		<DataField name="c12" optype="continuous" dataType="double"/>
		<DataField name="c13" optype="continuous" dataType="double"/>
		<DataField name="c14" optype="continuous" dataType="double"/>
		<DataField name="c15" optype="continuous" dataType="double"/>
		<DataField name="c16" optype="continuous" dataType="double"/>
		<DataField name="c17" optype="continuous" dataType="double"/>
		<DataField name="c18" optype="continuous" dataType="double"/>
		<DataField name="c19" optype="continuous" dataType="double"/>
		<DataField name="c20" optype="continuous" dataType="double"/>
	</DataDictionary>
	<NeuralNetwork functionName="regression" algorithmName="sklearn.neural_network._multilayer_perceptron.MLPRegressor" activationFunction="rectifier">
		<MiningSchema>
			<MiningField name="y" usageType="target"/>
			<MiningField name="c1"/>
			<MiningField name="c2"/>
			<MiningField name="c3"/>
			<MiningField name="c4"/>
			<MiningField name="c5"/>
			<MiningField name="c6"/>
			<MiningField name="c7"/>
			<MiningField name="c8"/>
			<MiningField name="c9"/>
			<MiningField name="c10"/>
			<MiningField name="c11"/>
			<MiningField name="c12"/>
			<MiningField name="c13"/>
			<MiningField name="c14"/>
			<MiningField name="c15"/>
			<MiningField name="c16"/>
			<MiningField name="c17"/>
			<MiningField name="c18"/>
			<MiningField name="c19"/>
			<MiningField name="c20"/>
		</MiningSchema>
		<NeuralInputs>
			<NeuralInput id="input/1">
				<DerivedField optype="continuous" dataType="double">
					<FieldRef field="c1"/>
				</DerivedField>
			</NeuralInput>
			<NeuralInput id="input/2">
				<DerivedField optype="continuous" dataType="double">
					<FieldRef field="c2"/>
				</DerivedField>
			</NeuralInput>
			<NeuralInput id="input/3">
				<DerivedField optype="continuous" dataType="double">
					<FieldRef field="c3"/>
				</DerivedField>
			</NeuralInput>
			<NeuralInput id="input/4">
				<DerivedField optype="continuous" dataType="double">
					<FieldRef field="c4"/>
				</DerivedField>
			</NeuralInput>
			<NeuralInput id="input/5">
				<DerivedField optype="continuous" dataType="double">
					<FieldRef field="c5"/>
				</DerivedField>
			</NeuralInput>
			<NeuralInput id="input/6">
				<DerivedField optype="continuous" dataType="double">
					<FieldRef field="c6"/>
				</DerivedField>
			</NeuralInput>
			<NeuralInput id="input/7">
				<DerivedField optype="continuous" dataType="double">
					<FieldRef field="c7"/>
				</DerivedField>
			</NeuralInput>
			<NeuralInput id="input/8">
				<DerivedField optype="continuous" dataType="double">
					<FieldRef field="c8"/>
				</DerivedField>
			</NeuralInput>
			<NeuralInput id="input/9">
				<DerivedField optype="continuous" dataType="double">
					<FieldRef field="c9"/>
				</DerivedField>
			</NeuralInput>
			<NeuralInput id="input/10">
				<DerivedField optype="continuous" dataType="double">
					<FieldRef field="c10"/>
				</DerivedField>
			</NeuralInput>
			<NeuralInput id="input/11">
				<DerivedField optype="continuous" dataType="double">
					<FieldRef field="c11"/>
				</DerivedField>
			</NeuralInput>
			<NeuralInput id="input/12">
				<DerivedField optype="continuous" dataType="double">
					<FieldRef field="c12"/>
				</DerivedField>
			</NeuralInput>
			<NeuralInput id="input/13">
				<DerivedField optype="continuous" dataType="double">
					<FieldRef field="c13"/>
				</DerivedField>
			</NeuralInput>
			<NeuralInput id="input/14">
				<DerivedField optype="continuous" dataType="double">
					<FieldRef field="c14"/>
				</DerivedField>
			</NeuralInput>
			<NeuralInput id="input/15">
				<DerivedField optype="continuous" dataType="double">
					<FieldRef field="c15"/>
				</DerivedField>
			</NeuralInput>
			<NeuralInput id="input/16">
				<DerivedField optype="continuous" dataType="double">
					<FieldRef field="c16"/>
				</DerivedField>
			</NeuralInput>
			<NeuralInput id="input/17">
				<DerivedField optype="continuous" dataType="double">
					<FieldRef field="c17"/>
				</DerivedField>
			</NeuralInput>
			<NeuralInput id="input/18">
				<DerivedField optype="continuous" dataType="double">
					<FieldRef field="c18"/>
				</DerivedField>
			</NeuralInput>
			<NeuralInput id="input/19">
				<DerivedField optype="continuous" dataType="double">
					<FieldRef field="c19"/>
				</DerivedField>
			</NeuralInput>
			<NeuralInput id="input/20">
				<DerivedField optype="continuous" dataType="double">
					<FieldRef field="c20"/>
				</DerivedField>
			</NeuralInput>
		</NeuralInputs>
		<NeuralLayer>
			<Neuron id="1/1" bias="-0.17746535022617196">
				<Con from="input/1" weight="0.02523653611971634"/>
				<Con from="input/2" weight="0.12244582931138259"/>
				<Con from="input/3" weight="0.011507303393118876"/>
				<Con from="input/4" weight="0.10764448937992686"/>
				<Con from="input/5" weight="0.04776310555291944"/>
				<Con from="input/6" weight="0.1531079642910084"/>
				<Con from="input/7" weight="0.05146771006113129"/>
				<Con from="input/8" weight="-0.020390510962177456"/>
				<Con from="input/9" weight="-0.21002952737739614"/>
				<Con from="input/10" weight="0.04838080645578349"/>
				<Con from="input/11" weight="-0.20440882255024445"/>
				<Con from="input/12" weight="0.17973675621436053"/>
				<Con from="input/13" weight="-0.20866242638523372"/>
				<Con from="input/14" weight="-0.0395946558082283"/>
				<Con from="input/15" weight="0.08845259759922351"/>
				<Con from="input/16" weight="0.023839858832270553"/>
				<Con from="input/17" weight="0.17854251430948026"/>
				<Con from="input/18" weight="0.13073052823227654"/>
				<Con from="input/19" weight="-0.18034247897930006"/>
				<Con from="input/20" weight="0.19867387637637077"/>
			</Neuron>
			<Neuron id="1/2" bias="-0.020688154327321504">
				<Con from="input/1" weight="0.07737458428635781"/>
				<Con from="input/2" weight="0.19475781557625282"/>
				<Con from="input/3" weight="0.02600843701860107"/>
				<Con from="input/4" weight="0.11023071319015292"/>
				<Con from="input/5" weight="0.03509415452893874"/>
				<Con from="input/6" weight="0.009865571726148097"/>
				<Con from="input/7" weight="0.128102901073932"/>
				<Con from="input/8" weight="-0.14324403899209276"/>
				<Con from="input/9" weight="-0.03909982551043512"/>
				<Con from="input/10" weight="-0.036350490695043314"/>
				<Con from="input/11" weight="-0.006902829769003398"/>
				<Con from="input/12" weight="0.11901333392128337"/>
				<Con from="input/13" weight="-0.056610318525735365"/>
				<Con from="input/14" weight="-0.11658442018653796"/>
				<Con from="input/15" weight="0.2109965496242065"/>
				<Con from="input/16" weight="0.1504285087599905"/>
				<Con from="input/17" weight="0.010572784515162333"/>
				<Con from="input/18" weight="-0.15645706751994398"/>
				<Con from="input/19" weight="0.005416333918825206"/>
				<Con from="input/20" weight="0.2864272473538715"/>
			</Neuron>
			<Neuron id="1/3" bias="0.18422714318972894">
				<Con from="input/1" weight="0.0572503224939499"/>
				<Con from="input/2" weight="-0.1889827163108736"/>
				<Con from="input/3" weight="0.0024548455024178575"/>
				<Con from="input/4" weight="0.14095364235283986"/>
				<Con from="input/5" weight="-0.1764938478358376"/>
				<Con from="input/6" weight="0.037617808587037234"/>
				<Con from="input/7" weight="-0.08945179482243597"/>
				<Con from="input/8" weight="-0.10534568222675995"/>
				<Con from="input/9" weight="0.04490865333201293"/>
				<Con from="input/10" weight="-0.13097033338166406"/>
				<Con from="input/11" weight="-0.031018068275705503"/>
				<Con from="input/12" weight="-0.14407880494968003"/>
				<Con from="input/13" weight="-0.019957703016194515"/>
				<Con from="input/14" weight="-0.0074776352300315405"/>
				<Con from="input/15" weight="0.21234732646521046"/>
				<Con from="input/16" weight="0.07327933395862515"/>
				<Con from="input/17" weight="-0.0015012128997240368"/>
				<Con from="input/18" weight="0.0573481539148419"/>
				<Con from="input/19" weight="-0.2005105142262586"/>
				<Con from="input/20" weight="-0.06857852704540857"/>
			</Neuron>
			<Neuron id="1/4" bias="0.026407795941233186">
				<Con from="input/1" weight="0.07474931287019702"/>
				<Con from="input/2" weight="-0.19109272127495236"/>
				<Con from="input/3" weight="0.017641684832191085"/>
				<Con from="input/4" weight="-0.03183860504570838"/>
				<Con from="input/5" weight="-0.11581838261487952"/>
				<Con from="input/6" weight="-0.12044954740390942"/>
				<Con from="input/7" weight="0.09567581040410873"/>
				<Con from="input/8" weight="-0.0816728859871671"/>
				<Con from="input/9" weight="-0.022851689647981975"/>
				<Con from="input/10" weight="-0.09852137228181214"/>
				<Con from="input/11" weight="0.11246502855818767"/>
				<Con from="input/12" weight="0.05936737718671837"/>
				<Con from="input/13" weight="0.15905927403601217"/>
				<Con from="input/14" weight="-0.08041525130217574"/>
				<Con from="input/15" weight="-0.17347219767310526"/>
				<Con from="input/16" weight="-0.2085292495818168"/>
				<Con from="input/17" weight="-0.023518680446539278"/>
				<Con from="input/18" weight="0.11838015435639129"/>
				<Con from="input/19" weight="-0.045375334441525784"/>
				<Con from="input/20" weight="-0.23061631297824328"/>
			</Neuron>
			<Neuron id="1/5" bias="0.04977880884103154">
				<Con from="input/1" weight="-0.10176999820802902"/>
				<Con from="input/2" weight="-0.14639900940287295"/>
				<Con from="input/3" weight="-0.047979884758435884"/>
				<Con from="input/4" weight="0.007023791933758515"/>
				<Con from="input/5" weight="-0.23875725828845765"/>
				<Con from="input/6" weight="0.11734331412342781"/>
				<Con from="input/7" weight="0.2333634604205804"/>
				<Con from="input/8" weight="0.02905941428517015"/>
				<Con from="input/9" weight="-0.2015324638430885"/>
				<Con from="input/10" weight="0.14264708208912882"/>
				<Con from="input/11" weight="0.13881169720756853"/>
				<Con from="input/12" weight="-0.20132668604236123"/>
				<Con from="input/13" weight="0.15360659977544322"/>
				<Con from="input/14" weight="-0.09834667164973802"/>
				<Con from="input/15" weight="0.06104364636142826"/>
				<Con from="input/16" weight="-0.17336850359707923"/>
				<Con from="input/17" weight="-0.06278140361999092"/>
				<Con from="input/18" weight="-0.17952965319174996"/>
				<Con from="input/19" weight="-0.1226636049498397"/>
				<Con from="input/20" weight="-0.07857799290618496"/>
			</Neuron>
			<Neuron id="1/6" bias="0.015367803164160351">
				<Con from="input/1" weight="-0.1480061184661225"/>
				<Con from="input/2" weight="-0.20426920005577168"/>
				<Con from="input/3" weight="-0.046934608181839865"/>
				<Con from="input/4" weight="0.04845813083448803"/>
				<Con from="input/5" weight="0.1459307307356013"/>
				<Con from="input/6" weight="0.04676757759269918"/>
				<Con from="input/7" weight="-0.11224600383516053"/>
				<Con from="input/8" weight="0.19864930313586182"/>
				<Con from="input/9" weight="0.086002384775968"/>
				<Con from="input/10" weight="0.12212437412884077"/>
				<Con from="input/11" weight="-0.08591303342143598"/>
				<Con from="input/12" weight="0.07511030460635137"/>
				<Con from="input/13" weight="0.02268846522958217"/>
				<Con from="input/14" weight="0.006133707159568277"/>
				<Con from="input/15" weight="-0.12033454513232901"/>
				<Con from="input/16" weight="0.13400238388117722"/>
				<Con from="input/17" weight="-0.12641750646105787"/>
				<Con from="input/18" weight="-0.06784433888488403"/>
				<Con from="input/19" weight="-0.08019828924819777"/>
				<Con from="input/20" weight="0.24371219223714324"/>
			</Neuron>
			<Neuron id="1/7" bias="-0.01787661257116844">
				<Con from="input/1" weight="-0.16831880016449458"/>
				<Con from="input/2" weight="-0.001620442683320506"/>
				<Con from="input/3" weight="0.054000985630039265"/>
				<Con from="input/4" weight="-0.16625925123582017"/>
				<Con from="input/5" weight="0.23636105181726585"/>
				<Con from="input/6" weight="-0.14511950684592806"/>
				<Con from="input/7" weight="-0.12995107234141787"/>
				<Con from="input/8" weight="0.19101051401535366"/>
				<Con from="input/9" weight="0.1926042230311348"/>
				<Con from="input/10" weight="-0.07201258506603621"/>
				<Con from="input/11" weight="0.04760187205936327"/>
				<Con from="input/12" weight="0.021461961455002093"/>
				<Con from="input/13" weight="-0.16252690709677606"/>
				<Con from="input/14" weight="0.20817671783111164"/>
				<Con from="input/15" weight="0.1891903320731043"/>
				<Con from="input/16" weight="0.024769943580156193"/>
				<Con from="input/17" weight="-0.19045246437485164"/>
				<Con from="input/18" weight="0.13696243917242967"/>
				<Con from="input/19" weight="-0.14371835681196063"/>
				<Con from="input/20" weight="-0.10166081545215615"/>
			</Neuron>
			<Neuron id="1/8" bias="0.10688825045519695">
				<Con from="input/1" weight="0.16572642861930129"/>
				<Con from="input/2" weight="0.21651537568943643"/>
				<Con from="input/3" weight="-0.21349233360067676"/>
				<Con from="input/4" weight="0.17381933439666197"/>
				<Con from="input/5" weight="0.13869971709417264"/>
				<Con from="input/6" weight="-0.16024526009500734"/>
				<Con from="input/7" weight="0.22552197111150898"/>
				<Con from="input/8" weight="-0.14341136447268457"/>
				<Con from="input/9" weight="-0.0928186615325139"/>
				<Con from="input/10" weight="0.03419532245082422"/>
				<Con from="input/11" weight="0.08493709620616466"/>
				<Con from="input/12" weight="-0.19857226830443087"/>
				<Con from="input/13" weight="-0.19464365940568773"/>
				<Con from="input/14" weight="-0.16699060270432103"/>
				<Con from="input/15" weight="-0.16201325072233574"/>
				<Con from="input/16" weight="-0.014954596581375596"/>
				<Con from="input/17" weight="0.1659028150800566"/>
				<Con from="input/18" weight="0.20531688344278262"/>
				<Con from="input/19" weight="-0.226142557408374"/>
				<Con from="input/20" weight="-0.2361994426343342"/>
			</Neuron>
			<Neuron id="1/9" bias="-0.14328175738092708">
				<Con from="input/1" weight="-0.04519866816026876"/>
				<Con from="input/2" weight="-0.026511956524418148"/>
				<Con from="input/3" weight="0.08266010071746942"/>
				<Con from="input/4" weight="0.08771067741422486"/>
				<Con from="input/5" weight="0.15590967356047292"/>
				<Con from="input/6" weight="-0.04814872135686262"/>
				<Con from="input/7" weight="0.07261884523132037"/>
				<Con from="input/8" weight="0.09286159064834218"/>
				<Con from="input/9" weight="0.03801710329561935"/>
				<Con from="input/10" weight="0.14114776925770028"/>
				<Con from="input/11" weight="-0.03654439909573865"/>
				<Con from="input/12" weight="-0.2115544009854618"/>
				<Con from="input/13" weight="-0.02962200708861787"/>
				<Con from="input/14" weight="0.05734133621337372"/>
				<Con from="input/15" weight="-0.02384569933341807"/>
				<Con from="input/16" weight="-0.11034329506489203"/>
				<Con from="input/17" weight="-0.09122315162752367"/>
				<Con from="input/18" weight="0.04316134143536358"/>
				<Con from="input/19" weight="0.15890351066784983"/>
				<Con from="input/20" weight="0.15973663720581283"/>
			</Neuron>
			<Neuron id="1/10" bias="-0.008954480047749453">
				<Con from="input/1" weight="0.08111823242227496"/>
				<Con from="input/2" weight="0.16329984010176696"/>
				<Con from="input/3" weight="0.10147175958048008"/>
				<Con from="input/4" weight="0.10394335588367834"/>
				<Con from="input/5" weight="0.2380481466590251"/>
				<Con from="input/6" weight="-0.04514906387865846"/>
				<Con from="input/7" weight="-0.11684880799688745"/>
				<Con from="input/8" weight="-0.18374432026672596"/>
				<Con from="input/9" weight="-0.16647914937197103"/>
				<Con from="input/10" weight="-0.18806228981766865"/>
				<Con from="input/11" weight="-0.12059120540446339"/>
				<Con from="input/12" weight="-0.1795211081802049"/>
				<Con from="input/13" weight="-0.03710340568655872"/>
				<Con from="input/14" weight="-0.12688343840016192"/>
				<Con from="input/15" weight="0.18186433207085873"/>
				<Con from="input/16" weight="-0.034328232088872895"/>
				<Con from="input/17" weight="0.03180346939843031"/>
				<Con from="input/18" weight="0.03237394095591272"/>
				<Con from="input/19" weight="0.025640686868403862"/>
				<Con from="input/20" weight="-0.010406144972115429"/>
			</Neuron>
			<Neuron id="1/11" bias="-0.20812019524439734">
				<Con from="input/1" weight="0.160648853876793"/>
				<Con from="input/2" weight="0.12081097329178317"/>
				<Con from="input/3" weight="-0.14702100562931192"/>
				<Con from="input/4" weight="0.16064898942946296"/>
				<Con from="input/5" weight="-0.16330297168461147"/>
				<Con from="input/6" weight="-0.11311195704969722"/>
				<Con from="input/7" weight="0.15166424142446538"/>
				<Con from="input/8" weight="0.09095337510428689"/>
				<Con from="input/9" weight="-0.2180479686753267"/>
				<Con from="input/10" weight="0.1121483409425648"/>
				<Con from="input/11" weight="-0.016059562067704276"/>
				<Con from="input/12" weight="0.16270243464713866"/>
				<Con from="input/13" weight="-0.23213617204990855"/>
				<Con from="input/14" weight="0.20498147848984116"/>
				<Con from="input/15" weight="-0.15000435949224009"/>
				<Con from="input/16" weight="0.0710387280308288"/>
				<Con from="input/17" weight="-0.12275133397025333"/>
				<Con from="input/18" weight="0.11433345881301006"/>
				<Con from="input/19" weight="-0.038358203421557435"/>
				<Con from="input/20" weight="0.04383250646763803"/>
			</Neuron>
			<Neuron id="1/12" bias="0.04795051658723639">
				<Con from="input/1" weight="-0.09682506967000983"/>
				<Con from="input/2" weight="0.11968879682089076"/>
				<Con from="input/3" weight="0.04568476297186995"/>
				<Con from="input/4" weight="0.07158526391141079"/>
				<Con from="input/5" weight="-0.02346256480361075"/>
				<Con from="input/6" weight="0.07780097857558636"/>
				<Con from="input/7" weight="0.1603953093445508"/>
				<Con from="input/8" weight="-0.09351690751282954"/>
				<Con from="input/9" weight="-0.2072560123767003"/>
				<Con from="input/10" weight="0.20142460438621904"/>
				<Con from="input/11" weight="0.08724533913335833"/>
				<Con from="input/12" weight="-0.2175181901807023"/>
				<Con from="input/13" weight="0.16600130337115981"/>
				<Con from="input/14" weight="0.017173832668531817"/>
				<Con from="input/15" weight="0.1968271886367909"/>
				<Con from="input/16" weight="0.18640441469794866"/>
				<Con from="input/17" weight="0.1550803457872339"/>
				<Con from="input/18" weight="-0.07591563078531467"/>
				<Con from="input/19" weight="0.08663561176029645"/>
				<Con from="input/20" weight="-0.1282460321389309"/>
			</Neuron>
			<Neuron id="1/13" bias="0.12416846552518146">
				<Con from="input/1" weight="-0.15111100321953583"/>
				<Con from="input/2" weight="0.03936821684586462"/>
				<Con from="input/3" weight="-0.09359533020523329"/>
				<Con from="input/4" weight="0.06712514554240596"/>
				<Con from="input/5" weight="0.025694950714231363"/>
				<Con from="input/6" weight="0.042693903156367466"/>
				<Con from="input/7" weight="-0.12437833026585796"/>
				<Con from="input/8" weight="0.11947369518681794"/>
				<Con from="input/9" weight="-0.20877880299249862"/>
				<Con from="input/10" weight="0.17042837907424385"/>
				<Con from="input/11" weight="0.028759205905231577"/>
				<Con from="input/12" weight="0.18779228871693898"/>
				<Con from="input/13" weight="0.015617744309844422"/>
				<Con from="input/14" weight="-0.1543972960411296"/>
				<Con from="input/15" weight="-0.06220588607177628"/>
				<Con from="input/16" weight="-0.002137543569281087"/>
				<Con from="input/17" weight="0.14616910251128687"/>
				<Con from="input/18" weight="-0.06353367861882434"/>
				<Con from="input/19" weight="-0.1366307309141656"/>
				<Con from="input/20" weight="-0.13915670722692342"/>
			</Neuron>
			<Neuron id="1/14" bias="0.06827519547570496">
				<Con from="input/1" weight="-0.17518970907167664"/>
				<Con from="input/2" weight="-0.042374679971569455"/>
				<Con from="input/3" weight="-0.03133792452789058"/>
				<Con from="input/4" weight="-0.16611329020233448"/>
				<Con from="input/5" weight="0.1615979732688595"/>
				<Con from="input/6" weight="-0.016015299569924646"/>
				<Con from="input/7" weight="0.1829208797100304"/>
				<Con from="input/8" weight="-0.20494870448723088"/>
				<Con from="input/9" weight="0.08049819994172212"/>
				<Con from="input/10" weight="-0.20141462273983643"/>
				<Con from="input/11" weight="0.13812991867788119"/>
				<Con from="input/12" weight="0.03632677829977163"/>
				<Con from="input/13" weight="-0.12039602523960792"/>
				<Con from="input/14" weight="-0.06380688028720378"/>
				<Con from="input/15" weight="-0.19850356702607985"/>
				<Con from="input/16" weight="0.20672338472514648"/>
				<Con from="input/17" weight="0.1637004778659024"/>
				<Con from="input/18" weight="-0.097235037828618"/>
				<Con from="input/19" weight="-0.201182997538602"/>
				<Con from="input/20" weight="0.23161354304064458"/>
			</Neuron>
			<Neuron id="1/15" bias="0.16570019473788178">
				<Con from="input/1" weight="-0.13459272896558588"/>
				<Con from="input/2" weight="-0.12303506671170177"/>
				<Con from="input/3" weight="-0.06732279399103387"/>
				<Con from="input/4" weight="-0.14510839443372447"/>
				<Con from="input/5" weight="-0.16765885294208416"/>
				<Con from="input/6" weight="-0.19123807797210687"/>
				<Con from="input/7" weight="-0.06073908445011987"/>
				<Con from="input/8" weight="0.033799118471538075"/>
				<Con from="input/9" weight="-0.1388478734771353"/>
				<Con from="input/10" weight="0.18379107486803356"/>
				<Con from="input/11" weight="0.1544803110844471"/>
				<Con from="input/12" weight="0.15429256769379932"/>
				<Con from="input/13" weight="0.15870551117893691"/>
				<Con from="input/14" weight="0.13188094801489805"/>
				<Con from="input/15" weight="-0.10659269568507838"/>
				<Con from="input/16" weight="0.2035491873374417"/>
				<Con from="input/17" weight="0.11665332232885865"/>
				<Con from="input/18" weight="-0.12481423145827948"/>
				<Con from="input/19" weight="-0.006687099534757015"/>
				<Con from="input/20" weight="-0.2555974563582878"/>
			</Neuron>
			<Neuron id="1/16" bias="0.06014858990852124">
				<Con from="input/1" weight="-0.12487427693817914"/>
				<Con from="input/2" weight="0.041743375206941394"/>
				<Con from="input/3" weight="-0.08563266008493195"/>
				<Con from="input/4" weight="-0.11995128694206197"/>
				<Con from="input/5" weight="-0.23688045409942368"/>
				<Con from="input/6" weight="-0.12677431419225654"/>
				<Con from="input/7" weight="0.16044730224973108"/>
				<Con from="input/8" weight="0.11388375105831981"/>
				<Con from="input/9" weight="0.05772399996377247"/>
				<Con from="input/10" weight="0.055656309948586315"/>
				<Con from="input/11" weight="0.08226687093915254"/>
				<Con from="input/12" weight="0.05344359186303766"/>
				<Con from="input/13" weight="-0.18106705366399564"/>
				<Con from="input/14" weight="0.05996790012771709"/>
				<Con from="input/15" weight="-0.0877566086314122"/>
				<Con from="input/16" weight="-0.18202809272564094"/>
				<Con from="input/17" weight="-0.1110000142392309"/>
				<Con from="input/18" weight="0.1994378522848688"/>
				<Con from="input/19" weight="0.211595697693873"/>
				<Con from="input/20" weight="-0.2594371866492291"/>
			</Neuron>
			<Neuron id="1/17" bias="0.11756987724211618">
				<Con from="input/1" weight="0.048626642799685114"/>
				<Con from="input/2" weight="-0.04762370783868621"/>
				<Con from="input/3" weight="-0.09749135568275398"/>
				<Con from="input/4" weight="0.24355022615218486"/>
				<Con from="input/5" weight="-0.01991459299072268"/>
				<Con from="input/6" weight="-0.047281787479097045"/>
				<Con from="input/7" weight="-0.1697065200210446"/>
				<Con from="input/8" weight="0.25190129698666824"/>
				<Con from="input/9" weight="-0.15231011844795977"/>
				<Con from="input/10" weight="0.060333330742998924"/>
				<Con from="input/11" weight="0.018102021287981808"/>
				<Con from="input/12" weight="-0.06166477161697023"/>
				<Con from="input/13" weight="-0.1613029199175124"/>
				<Con from="input/14" weight="0.1257053880957249"/>
				<Con from="input/15" weight="-0.07126404812859248"/>
				<Con from="input/16" weight="-0.009375463261825456"/>
				<Con from="input/17" weight="-0.05732246350273064"/>
				<Con from="input/18" weight="-0.1728617001206158"/>
				<Con from="input/19" weight="0.09218258871861547"/>
				<Con from="input/20" weight="0.2456249806375013"/>
			</Neuron>
			<Neuron id="1/18" bias="0.14737321369398068">
				<Con from="input/1" weight="-0.09944652789353826"/>
				<Con from="input/2" weight="0.17649983784826762"/>
				<Con from="input/3" weight="0.06454603839776137"/>
				<Con from="input/4" weight="-0.06293906601913749"/>
				<Con from="input/5" weight="-0.03746802319961937"/>
				<Con from="input/6" weight="0.19243333150648761"/>
				<Con from="input/7" weight="-0.15958723892025528"/>
				<Con from="input/8" weight="0.08612744237867759"/>
				<Con from="input/9" weight="0.10634073218995986"/>
				<Con from="input/10" weight="-0.17257935709983133"/>
				<Con from="input/11" weight="0.16467046568823437"/>
				<Con from="input/12" weight="0.0799218286602347"/>
				<Con from="input/13" weight="0.15954115237547806"/>
				<Con from="input/14" weight="0.010431204014170926"/>
				<Con from="input/15" weight="-0.12378485130979759"/>
				<Con from="input/16" weight="0.03123583513915943"/>
				<Con from="input/17" weight="-0.21374902500039933"/>
				<Con from="input/18" weight="-0.12353652306137107"/>
				<Con from="input/19" weight="0.10718873057475449"/>
				<Con from="input/20" weight="-0.15339891797409583"/>
			</Neuron>
			<Neuron id="1/19" bias="0.11434567803119357">
				<Con from="input/1" weight="-0.13605297618547968"/>
				<Con from="input/2" weight="0.18043126947300794"/>
				<Con from="input/3" weight="-0.10118449274999991"/>
				<Con from="input/4" weight="-0.07387317630584887"/>
				<Con from="input/5" weight="-0.12657346896734548"/>
				<Con from="input/6" weight="-0.10851441110111996"/>
				<Con from="input/7" weight="-0.195128781844375"/>
				<Con from="input/8" weight="-0.1276018936774299"/>
				<Con from="input/9" weight="0.20911071605181966"/>
				<Con from="input/10" weight="-0.025867686986069584"/>
				<Con from="input/11" weight="0.16299837860606317"/>
				<Con from="input/12" weight="0.06679188028611388"/>
				<Con from="input/13" weight="0.08552021720899303"/>
				<Con from="input/14" weight="-0.2017166019390621"/>
				<Con from="input/15" weight="0.17701642896789194"/>
				<Con from="input/16" weight="0.12134805301600808"/>
				<Con from="input/17" weight="0.021939784410694982"/>
				<Con from="input/18" weight="0.2097175124934967"/>
				<Con from="input/19" weight="0.11151544838395083"/>
				<Con from="input/20" weight="0.086032458531873"/>
			</Neuron>
			<Neuron id="1/20" bias="0.04037031875683208">
				<Con from="input/1" weight="-0.015270540806971735"/>
				<Con from="input/2" weight="0.0515603061837602"/>
				<Con from="input/3" weight="0.12951032251018807"/>
				<Con from="input/4" weight="0.09352418505464367"/>
				<Con from="input/5" weight="0.18015216400864514"/>
				<Con from="input/6" weight="0.11651461268344995"/>
				<Con from="input/7" weight="0.11718921535566754"/>
				<Con from="input/8" weight="0.011546594293062908"/>
				<Con from="input/9" weight="-0.012332830778943508"/>
				<Con from="input/10" weight="-0.14791971183678615"/>
				<Con from="input/11" weight="0.036163392720032425"/>
				<Con from="input/12" weight="0.21108980965904478"/>
				<Con from="input/13" weight="0.1038093008706421"/>
				<Con from="input/14" weight="0.022087667583382535"/>
				<Con from="input/15" weight="0.014638727283130724"/>
				<Con from="input/16" weight="0.22009837299871265"/>
				<Con from="input/17" weight="-0.029631604763455537"/>
				<Con from="input/18" weight="0.1303858008688833"/>
				<Con from="input/19" weight="0.055192898504306476"/>
				<Con from="input/20" weight="-0.1430490334989028"/>
			</Neuron>
			<Neuron id="1/21" bias="0.21496916534346197">
				<Con from="input/1" weight="-0.1402131436424703"/>
				<Con from="input/2" weight="0.1593443182763317"/>
				<Con from="input/3" weight="-0.0031159399949524285"/>
				<Con from="input/4" weight="0.007518580311679402"/>
				<Con from="input/5" weight="-0.0790181171779988"/>
				<Con from="input/6" weight="0.16951875305790623"/>
				<Con from="input/7" weight="0.20670893605758825"/>
				<Con from="input/8" weight="-0.13825887748736804"/>
				<Con from="input/9" weight="-0.13034700380801492"/>
				<Con from="input/10" weight="0.13498884974702233"/>
				<Con from="input/11" weight="-0.028602921334456778"/>
				<Con from="input/12" weight="-0.1615241428559025"/>
				<Con from="input/13" weight="-0.06350762061232904"/>
				<Con from="input/14" weight="0.14863725987341758"/>
				<Con from="input/15" weight="-0.019499182978036118"/>
				<Con from="input/16" weight="-0.1120993377025099"/>
				<Con from="input/17" weight="-0.07820191478957071"/>
				<Con from="input/18" weight="-0.09999448634101388"/>
				<Con from="input/19" weight="-0.040365123866441"/>
				<Con from="input/20" weight="0.2940637880981769"/>
			</Neuron>
			<Neuron id="1/22" bias="-0.1499800324859104">
				<Con from="input/1" weight="-0.09908600654855552"/>
				<Con from="input/2" weight="0.20996449218678334"/>
				<Con from="input/3" weight="0.12266368524139516"/>
				<Con from="input/4" weight="-0.09907057246209632"/>
				<Con from="input/5" weight="0.150275567304698"/>
				<Con from="input/6" weight="-0.06736518371384646"/>
				<Con from="input/7" weight="-0.14505048107094892"/>
				<Con from="input/8" weight="-0.09536194960778382"/>
				<Con from="input/9" weight="-0.058147474230076296"/>
				<Con from="input/10" weight="-0.1939422107964297"/>
				<Con from="input/11" weight="-0.12501020001282834"/>
				<Con from="input/12" weight="-0.18921552320076895"/>
				<Con from="input/13" weight="0.12019604954690599"/>
				<Con from="input/14" weight="0.06347961984312679"/>
				<Con from="input/15" weight="-0.156375426875485"/>
				<Con from="input/16" weight="0.23493755438460498"/>
				<Con from="input/17" weight="0.09550289581458113"/>
				<Con from="input/18" weight="0.09498638521850458"/>
				<Con from="input/19" weight="-0.1693651538838173"/>
				<Con from="input/20" weight="-0.15891533134254324"/>
			</Neuron>
			<Neuron id="1/23" bias="0.17458554703168963">
				<Con from="input/1" weight="-0.1833242860725679"/>
				<Con from="input/2" weight="-0.11416516772383567"/>
				<Con from="input/3" weight="-0.20121677736552937"/>
				<Con from="input/4" weight="-0.002104658790557269"/>
				<Con from="input/5" weight="-0.013501756393573988"/>
				<Con from="input/6" weight="0.2611266361042507"/>
				<Con from="input/7" weight="0.222770000904123"/>
				<Con from="input/8" weight="-0.16424432039567846"/>
				<Con from="input/9" weight="-0.010307313181490094"/>
				<Con from="input/10" weight="0.014078121955170678"/>
				<Con from="input/11" weight="0.12039606276830517"/>
				<Con from="input/12" weight="0.19888963970449008"/>
				<Con from="input/13" weight="-0.1510894084312451"/>
				<Con from="input/14" weight="0.023521943324023426"/>
				<Con from="input/15" weight="0.21984732027832468"/>
				<Con from="input/16" weight="0.095330786883764"/>
				<Con from="input/17" weight="0.01489250456499333"/>
				<Con from="input/18" weight="-0.07460900253215441"/>
				<Con from="input/19" weight="-0.24290797628145847"/>
				<Con from="input/20" weight="0.08078276495671183"/>
			</Neuron>
			<Neuron id="1/24" bias="-0.2576944432965749">
				<Con from="input/1" weight="-0.1594555829608296"/>
				<Con from="input/2" weight="0.19771206911691633"/>
				<Con from="input/3" weight="-0.15612446243465522"/>
				<Con from="input/4" weight="0.10186459232385026"/>
				<Con from="input/5" weight="-0.08167344152152024"/>
				<Con from="input/6" weight="0.08317358146874851"/>
				<Con from="input/7" weight="0.050579582556710835"/>
				<Con from="input/8" weight="0.09381014324303891"/>
				<Con from="input/9" weight="0.2164755822816215"/>
				<Con from="input/10" weight="-0.16969839103326534"/>
				<Con from="input/11" weight="0.18296574695080886"/>
				<Con from="input/12" weight="-0.15551096787847013"/>
				<Con from="input/13" weight="-0.06811184056078914"/>
				<Con from="input/14" weight="0.11083379675704731"/>
				<Con from="input/15" weight="0.029731054117053752"/>
				<Con from="input/16" weight="-0.013333121831974284"/>
				<Con from="input/17" weight="-0.019335760356400798"/>
				<Con from="input/18" weight="-0.13464240418358814"/>
				<Con from="input/19" weight="-0.13613930240421127"/>
				<Con from="input/20" weight="0.056226267634263825"/>
			</Neuron>
			<Neuron id="1/25" bias="0.10426901009578196">
				<Con from="input/1" weight="0.013463915437573977"/>
				<Con from="input/2" weight="-0.1648780871832808"/>
				<Con from="input/3" weight="0.02138224600823677"/>
				<Con from="input/4" weight="0.09216604263593871"/>
				<Con from="input/5" weight="0.04235881337820467"/>
				<Con from="input/6" weight="-0.08134691892507194"/>
				<Con from="input/7" weight="0.0749059789619703"/>
				<Con from="input/8" weight="0.04444368037840308"/>
				<Con from="input/9" weight="0.09564780015023597"/>
				<Con from="input/10" weight="-0.11269269706800654"/>
				<Con from="input/11" weight="-0.1903615103382885"/>
				<Con from="input/12" weight="-0.20468183109571694"/>
				<Con from="input/13" weight="-0.06765429766439311"/>
				<Con from="input/14" weight="-0.19011887472944383"/>
				<Con from="input/15" weight="0.1239467274073563"/>
				<Con from="input/16" weight="0.08349066399918466"/>
				<Con from="input/17" weight="-0.02611194505039043"/>
				<Con from="input/18" weight="0.02792578663892976"/>
				<Con from="input/19" weight="-0.050075741981306"/>
				<Con from="input/20" weight="0.23604459297153738"/>
			</Neuron>
			<Neuron id="1/26" bias="-0.15924527327692728">
				<Con from="input/1" weight="-0.11604828679611089"/>
				<Con from="input/2" weight="0.07119607824383632"/>
				<Con from="input/3" weight="0.04889127844171687"/>
				<Con from="input/4" weight="-0.10821979789492282"/>
				<Con from="input/5" weight="-0.2186925896501089"/>
				<Con from="input/6" weight="-0.12463591793815762"/>
				<Con from="input/7" weight="0.19377256796909367"/>
				<Con from="input/8" weight="-0.1011883665271524"/>
				<Con from="input/9" weight="-0.12391698643985564"/>
				<Con from="input/10" weight="-0.1844757759885591"/>
				<Con from="input/11" weight="0.09147568927574372"/>
				<Con from="input/12" weight="0.16998463193762484"/>
				<Con from="input/13" weight="0.22640923412831276"/>
				<Con from="input/14" weight="0.061150133661242244"/>
				<Con from="input/15" weight="-0.06625833244317274"/>
				<Con from="input/16" weight="0.0618136901127876"/>
				<Con from="input/17" weight="0.015672328302338057"/>
				<Con from="input/18" weight="-0.10821610649838112"/>
				<Con from="input/19" weight="-0.2220126079610135"/>
				<Con from="input/20" weight="0.2488068301204098"/>
			</Neuron>
			<Neuron id="1/27" bias="-0.05834670351390032">
				<Con from="input/1" weight="-0.03593247872026431"/>
				<Con from="input/2" weight="-0.038651847773274066"/>
				<Con from="input/3" weight="-0.038484556355332974"/>
				<Con from="input/4" weight="0.1322172291511843"/>
				<Con from="input/5" weight="0.09294297432045229"/>
				<Con from="input/6" weight="-0.02063131866291277"/>
				<Con from="input/7" weight="-0.04179917101370202"/>
				<Con from="input/8" weight="-0.054870736766673034"/>
				<Con from="input/9" weight="0.17967423376639108"/>
				<Con from="input/10" weight="0.11970369291024922"/>
				<Con from="input/11" weight="0.09491089402647596"/>
				<Con from="input/12" weight="-0.09357389983927179"/>
				<Con from="input/13" weight="0.06478563443589773"/>
				<Con from="input/14" weight="0.22048358340273377"/>
				<Con from="input/15" weight="0.03452584189522044"/>
				<Con from="input/16" weight="0.030476911023530815"/>
				<Con from="input/17" weight="-0.1394019615611014"/>
				<Con from="input/18" weight="-0.07876981888830253"/>
				<Con from="input/19" weight="-0.13764858450610226"/>
				<Con from="input/20" weight="0.2475233724275068"/>
			</Neuron>
			<Neuron id="1/28" bias="-0.14075557826462104">
				<Con from="input/1" weight="-0.16360964201170283"/>
				<Con from="input/2" weight="-0.19007533211278255"/>
				<Con from="input/3" weight="0.11249168931814811"/>
				<Con from="input/4" weight="0.18793258034322335"/>
				<Con from="input/5" weight="-0.17109709747956214"/>
				<Con from="input/6" weight="-0.004916241057270233"/>
				<Con from="input/7" weight="0.10372131198772476"/>
				<Con from="input/8" weight="-0.007648284946656319"/>
				<Con from="input/9" weight="0.2022214132895319"/>
				<Con from="input/10" weight="-0.18315066268872562"/>
				<Con from="input/11" weight="0.059819218796836916"/>
				<Con from="input/12" weight="-0.1397937976816293"/>
				<Con from="input/13" weight="-0.04268504328024513"/>
				<Con from="input/14" weight="-0.18073446451761252"/>
				<Con from="input/15" weight="0.20289557151193693"/>
				<Con from="input/16" weight="-0.18579837608085636"/>
				<Con from="input/17" weight="-0.19101861534694609"/>
				<Con from="input/18" weight="-0.17920351505982385"/>
				<Con from="input/19" weight="-0.12670090229993453"/>
				<Con from="input/20" weight="-0.26441245777800154"/>
			</Neuron>
			<Neuron id="1/29" bias="-0.17241510188001907">
				<Con from="input/1" weight="0.09969317111301497"/>
				<Con from="input/2" weight="0.21435765874049906"/>
				<Con from="input/3" weight="-0.16715909316870878"/>
				<Con from="input/4" weight="-0.14858950286155267"/>
				<Con from="input/5" weight="-0.23296798572756278"/>
				<Con from="input/6" weight="0.08998949430004506"/>
				<Con from="input/7" weight="-0.054443672555514806"/>
				<Con from="input/8" weight="0.2704251880890159"/>
				<Con from="input/9" weight="0.028805655181212027"/>
				<Con from="input/10" weight="-0.05028383357888062"/>
				<Con from="input/11" weight="-0.1207286567001346"/>
				<Con from="input/12" weight="-0.006528704138001275"/>
				<Con from="input/13" weight="-0.06771733826906035"/>
				<Con from="input/14" weight="-0.018810867933137247"/>
				<Con from="input/15" weight="0.1686478790713939"/>
				<Con from="input/16" weight="0.10506106841356631"/>
				<Con from="input/17" weight="0.01829170781014383"/>
				<Con from="input/18" weight="-0.039208767302314124"/>
				<Con from="input/19" weight="-0.11315164469977411"/>
				<Con from="input/20" weight="0.10422798824280653"/>
			</Neuron>
			<Neuron id="1/30" bias="-0.03783123107425788">
				<Con from="input/1" weight="0.19725521414485592"/>
				<Con from="input/2" weight="-0.03854013204218971"/>
				<Con from="input/3" weight="0.2320139669253155"/>
				<Con from="input/4" weight="-0.0667106379815912"/>
				<Con from="input/5" weight="-0.19087313195046043"/>
				<Con from="input/6" weight="0.221903852492775"/>
				<Con from="input/7" weight="0.18472562663505732"/>
				<Con from="input/8" weight="0.22120780430901268"/>
				<Con from="input/9" weight="0.06902684952603859"/>
				<Con from="input/10" weight="-0.015843881856242165"/>
				<Con from="input/11" weight="-0.12587454074329502"/>
				<Con from="input/12" weight="-0.0024641547194160264"/>
				<Con from="input/13" weight="-0.0061430797214462336"/>
				<Con from="input/14" weight="-0.14744571503656545"/>
				<Con from="input/15" weight="-0.19581867031382322"/>
				<Con from="input/16" weight="0.16469579249003005"/>
				<Con from="input/17" weight="0.07386569585281816"/>
				<Con from="input/18" weight="-0.11223748441944942"/>
				<Con from="input/19" weight="-0.018860270400036367"/>
				<Con from="input/20" weight="-0.1219702364193167"/>
			</Neuron>
			<Neuron id="1/31" bias="-0.047961509784737344">
				<Con from="input/1" weight="-0.014908349051296016"/>
				<Con from="input/2" weight="-0.037099386010008006"/>
				<Con from="input/3" weight="-0.06794081982622452"/>
				<Con from="input/4" weight="0.05161433297430949"/>
				<Con from="input/5" weight="0.012742554376610286"/>
				<Con from="input/6" weight="-0.1895088111334565"/>
				<Con from="input/7" weight="0.16294583628943293"/>
				<Con from="input/8" weight="-0.1250055673953529"/>
				<Con from="input/9" weight="0.0728325179887488"/>
				<Con from="input/10" weight="0.16559375656685715"/>
				<Con from="input/11" weight="0.0554531284170815"/>
				<Con from="input/12" weight="-0.16467263406741658"/>
				<Con from="input/13" weight="-0.03285775968467023"/>
				<Con from="input/14" weight="0.042943086066236084"/>
				<Con from="input/15" weight="-0.07082974447061822"/>
				<Con from="input/16" weight="-0.09473253795879792"/>
				<Con from="input/17" weight="-0.09585090997686972"/>
				<Con from="input/18" weight="-0.04954476392516592"/>
				<Con from="input/19" weight="-0.23528569869350385"/>
				<Con from="input/20" weight="0.23082898995417334"/>
			</Neuron>
			<Neuron id="1/32" bias="-0.2422957061385007">
				<Con from="input/1" weight="0.19799115271199402"/>
				<Con from="input/2" weight="-0.1948560342148515"/>
				<Con from="input/3" weight="0.15672980871328077"/>
				<Con from="input/4" weight="-0.09659696219559337"/>
				<Con from="input/5" weight="-0.04679040928666412"/>
				<Con from="input/6" weight="0.1043327563578543"/>
				<Con from="input/7" weight="-0.18555676120177983"/>
				<Con from="input/8" weight="-0.3138680300469767"/>
				<Con from="input/9" weight="0.23475478856243331"/>
				<Con from="input/10" weight="0.10835188989785095"/>
				<Con from="input/11" weight="-0.08437428172618137"/>
				<Con from="input/12" weight="-8.004860362599676E-4"/>
				<Con from="input/13" weight="0.12291191958425395"/>
				<Con from="input/14" weight="0.0955598207040592"/>
				<Con from="input/15" weight="-0.025479298674915805"/>
				<Con from="input/16" weight="-0.18898254667629583"/>
				<Con from="input/17" weight="0.22508947407020669"/>
				<Con from="input/18" weight="-0.10518532049255035"/>
				<Con from="input/19" weight="-0.1005376121353311"/>
				<Con from="input/20" weight="0.11809161002511023"/>
			</Neuron>
			<Neuron id="1/33" bias="0.15727646711603094">
				<Con from="input/1" weight="-0.1141058784208577"/>
				<Con from="input/2" weight="-0.08693617530371636"/>
				<Con from="input/3" weight="0.21996726832007904"/>
				<Con from="input/4" weight="-0.08224490970891592"/>
				<Con from="input/5" weight="0.16516741829515566"/>
				<Con from="input/6" weight="-0.18780600140654163"/>
				<Con from="input/7" weight="-0.08550988579320674"/>
				<Con from="input/8" weight="0.15810779070990372"/>
				<Con from="input/9" weight="-0.03637945713238694"/>
				<Con from="input/10" weight="0.271616140173228"/>
				<Con from="input/11" weight="-0.15369482425256412"/>
				<Con from="input/12" weight="0.2003724276400927"/>
				<Con from="input/13" weight="0.1519176709405871"/>
				<Con from="input/14" weight="0.14631846857930414"/>
				<Con from="input/15" weight="-0.15277716441746622"/>
				<Con from="input/16" weight="-0.11654993401824598"/>
				<Con from="input/17" weight="-0.17499608481686116"/>
				<Con from="input/18" weight="-0.15880474491288826"/>
				<Con from="input/19" weight="-0.037932719920221375"/>
				<Con from="input/20" weight="0.02678297323908984"/>
			</Neuron>
			<Neuron id="1/34" bias="-0.24097063434052202">
				<Con from="input/1" weight="0.1859960500512688"/>
				<Con from="input/2" weight="-0.055204069324645846"/>
				<Con from="input/3" weight="0.1927436069622611"/>
				<Con from="input/4" weight="-0.18688046232776528"/>
				<Con from="input/5" weight="-0.2015292538705874"/>
				<Con from="input/6" weight="0.015288410915520056"/>
				<Con from="input/7" weight="-0.1554766240236713"/>
				<Con from="input/8" weight="-0.0013338200412573913"/>
				<Con from="input/9" weight="-0.08076385144140696"/>
				<Con from="input/10" weight="0.012150160305625986"/>
				<Con from="input/11" weight="-0.219696195633528"/>
				<Con from="input/12" weight="-0.08401621656625058"/>
				<Con from="input/13" weight="-0.14464440506018467"/>
				<Con from="input/14" weight="0.056790719818252115"/>
				<Con from="input/15" weight="0.1113503069300555"/>
				<Con from="input/16" weight="-0.12428429058226682"/>
				<Con from="input/17" weight="-0.011963922218978377"/>
				<Con from="input/18" weight="0.10295968675806907"/>
				<Con from="input/19" weight="0.14990441610685537"/>
				<Con from="input/20" weight="0.23065217671603214"/>
			</Neuron>
			<Neuron id="1/35" bias="0.0742888474638237">
				<Con from="input/1" weight="-0.1570839489685262"/>
				<Con from="input/2" weight="0.04934546873279078"/>
				<Con from="input/3" weight="-0.1523113209450068"/>
				<Con from="input/4" weight="-0.1292227823863916"/>
				<Con from="input/5" weight="0.21685346571347136"/>
				<Con from="input/6" weight="0.0712559534329865"/>
				<Con from="input/7" weight="-0.23881237740040323"/>
				<Con from="input/8" weight="0.10791133574805385"/>
				<Con from="input/9" weight="-0.03896196008201619"/>
				<Con from="input/10" weight="0.1251622344661711"/>
				<Con from="input/11" weight="0.054574291239034595"/>
				<Con from="input/12" weight="0.02600771872719902"/>
				<Con from="input/13" weight="0.16608650673594635"/>
				<Con from="input/14" weight="-0.006695403509181739"/>
				<Con from="input/15" weight="0.04701033189131447"/>
				<Con from="input/16" weight="0.14838250948783777"/>
				<Con from="input/17" weight="0.15198917815593624"/>
				<Con from="input/18" weight="0.06956598692397697"/>
				<Con from="input/19" weight="0.12151134287350836"/>
				<Con from="input/20" weight="0.17360355932490007"/>
			</Neuron>
			<Neuron id="1/36" bias="-0.20116366265662886">
				<Con from="input/1" weight="0.20357741758406453"/>
				<Con from="input/2" weight="-0.010169679315797734"/>
				<Con from="input/3" weight="0.03190228678772816"/>
				<Con from="input/4" weight="0.16273735522541274"/>
				<Con from="input/5" weight="0.016573022931515285"/>
				<Con from="input/6" weight="-0.22379722542863353"/>
				<Con from="input/7" weight="-0.16552954704427716"/>
				<Con from="input/8" weight="-0.1742260578933377"/>
				<Con from="input/9" weight="-0.16539441326186405"/>
				<Con from="input/10" weight="0.04700926961826741"/>
				<Con from="input/11" weight="-0.08827103710161559"/>
				<Con from="input/12" weight="0.10018958251265721"/>
				<Con from="input/13" weight="-0.10330783933332098"/>
				<Con from="input/14" weight="-0.1366852011341506"/>
				<Con from="input/15" weight="0.03127830708745763"/>
				<Con from="input/16" weight="-0.10567232084528191"/>
				<Con from="input/17" weight="-0.0063136771051637095"/>
				<Con from="input/18" weight="-0.05161726379776179"/>
				<Con from="input/19" weight="-0.012211935707621564"/>
				<Con from="input/20" weight="0.07320300509398321"/>
			</Neuron>
			<Neuron id="1/37" bias="-0.13900126294073575">
				<Con from="input/1" weight="0.15460387090256592"/>
				<Con from="input/2" weight="-0.06185934735089934"/>
				<Con from="input/3" weight="-0.037181507834649234"/>
				<Con from="input/4" weight="0.19123992100710283"/>
				<Con from="input/5" weight="-0.20466309449505837"/>
				<Con from="input/6" weight="0.05079726300062625"/>
				<Con from="input/7" weight="0.038194857584626964"/>
				<Con from="input/8" weight="-0.12203368705231837"/>
				<Con from="input/9" weight="0.09055582347104053"/>
				<Con from="input/10" weight="-0.012022395651673156"/>
				<Con from="input/11" weight="0.009970665875966019"/>
				<Con from="input/12" weight="-0.10778781102927401"/>
				<Con from="input/13" weight="-0.10737440785453266"/>
				<Con from="input/14" weight="0.2164061797521477"/>
				<Con from="input/15" weight="-0.16006690669806678"/>
				<Con from="input/16" weight="-0.10859349716123858"/>
				<Con from="input/17" weight="-0.08142343553042693"/>
				<Con from="input/18" weight="0.004868668292204048"/>
				<Con from="input/19" weight="-0.21928863344490598"/>
				<Con from="input/20" weight="-0.05617190747926744"/>
			</Neuron>
			<Neuron id="1/38" bias="-0.03397478841271591">
				<Con from="input/1" weight="-0.05719754306212349"/>
				<Con from="input/2" weight="0.2040097547879482"/>
				<Con from="input/3" weight="0.007744886644628107"/>
				<Con from="input/4" weight="0.07064265765190013"/>
				<Con from="input/5" weight="0.09979834720046038"/>
				<Con from="input/6" weight="0.16710380978341718"/>
				<Con from="input/7" weight="-0.1186895247452297"/>
				<Con from="input/8" weight="-0.025760150913928928"/>
				<Con from="input/9" weight="-0.10745386075466506"/>
				<Con from="input/10" weight="-0.13354163765310517"/>
				<Con from="input/11" weight="0.08906206436612452"/>
				<Con from="input/12" weight="-0.14668396104051679"/>
				<Con from="input/13" weight="0.16721913956178133"/>
				<Con from="input/14" weight="0.16121158067047187"/>
				<Con from="input/15" weight="-0.1768741438154055"/>
				<Con from="input/16" weight="-0.10078426416588288"/>
				<Con from="input/17" weight="-0.20317051419477908"/>
				<Con from="input/18" weight="-0.18943792577706198"/>
				<Con from="input/19" weight="-0.04186969527465137"/>
				<Con from="input/20" weight="0.22601534898221443"/>
			</Neuron>
			<Neuron id="1/39" bias="0.13388473771827425">
				<Con from="input/1" weight="0.19073604012638024"/>
				<Con from="input/2" weight="-0.217799723495187"/>
				<Con from="input/3" weight="0.08144657900489717"/>
				<Con from="input/4" weight="-0.11203659172247712"/>
				<Con from="input/5" weight="-0.15804775771376173"/>
				<Con from="input/6" weight="0.04407017474052252"/>
				<Con from="input/7" weight="-0.04617722553580316"/>
				<Con from="input/8" weight="0.09761589980098236"/>
				<Con from="input/9" weight="0.10140102645321934"/>
				<Con from="input/10" weight="0.05159482512640808"/>
				<Con from="input/11" weight="-0.07380557797146015"/>
				<Con from="input/12" weight="-0.08399660954387574"/>
				<Con from="input/13" weight="0.1571978855198871"/>
				<Con from="input/14" weight="-0.10756269866613913"/>
				<Con from="input/15" weight="-0.016684113893832835"/>
				<Con from="input/16" weight="-0.08068448328749171"/>
				<Con from="input/17" weight="-0.11260074095702129"/>
				<Con from="input/18" weight="0.08864556408731367"/>
				<Con from="input/19" weight="-0.056992383472758784"/>
				<Con from="input/20" weight="0.24137437009668916"/>
			</Neuron>
			<Neuron id="1/40" bias="-0.11039499961443214">
				<Con from="input/1" weight="0.1828448474054609"/>
				<Con from="input/2" weight="-0.1261627457153634"/>
				<Con from="input/3" weight="0.1639966397326662"/>
				<Con from="input/4" weight="0.09160641029921585"/>
				<Con from="input/5" weight="0.20115193727955868"/>
				<Con from="input/6" weight="0.018148091387027433"/>
				<Con from="input/7" weight="0.14880820987579332"/>
				<Con from="input/8" weight="0.14101603399185922"/>
				<Con from="input/9" weight="-0.11389262413050334"/>
				<Con from="input/10" weight="0.016069865050268837"/>
				<Con from="input/11" weight="-0.12900076858720075"/>
				<Con from="input/12" weight="0.17404235213685834"/>
				<Con from="input/13" weight="-0.21397354461730436"/>
				<Con from="input/14" weight="0.16199163996723925"/>
				<Con from="input/15" weight="0.18397958625683825"/>
				<Con from="input/16" weight="-0.09714401936236879"/>
				<Con from="input/17" weight="-0.19916754986780036"/>
				<Con from="input/18" weight="0.18454658580125047"/>
				<Con from="input/19" weight="0.2254583434399752"/>
				<Con from="input/20" weight="0.12935513281242533"/>
			</Neuron>
			<Neuron id="1/41" bias="-0.23998826053489064">
				<Con from="input/1" weight="-0.1357035343741978"/>
				<Con from="input/2" weight="0.12045630518575268"/>
				<Con from="input/3" weight="-0.1869251516855715"/>
				<Con from="input/4" weight="-0.2504491546568708"/>
				<Con from="input/5" weight="0.024075727118250543"/>
				<Con from="input/6" weight="-0.02597198300317859"/>
				<Con from="input/7" weight="0.20215242884006135"/>
				<Con from="input/8" weight="0.06715510262946729"/>
				<Con from="input/9" weight="0.08138694002958688"/>
				<Con from="input/10" weight="0.1742459514733061"/>
				<Con from="input/11" weight="-0.18167623993470922"/>
				<Con from="input/12" weight="-0.18791602551114894"/>
				<Con from="input/13" weight="0.17626842638481394"/>
				<Con from="input/14" weight="0.09916041737769363"/>
				<Con from="input/15" weight="-0.07233229615587872"/>
				<Con from="input/16" weight="0.20328467607418718"/>
				<Con from="input/17" weight="-0.25575676635915773"/>
				<Con from="input/18" weight="-0.08074287313630506"/>
				<Con from="input/19" weight="0.12080326883893612"/>
				<Con from="input/20" weight="0.1228980314777898"/>
			</Neuron>
			<Neuron id="1/42" bias="0.06489142708674386">
				<Con from="input/1" weight="0.012266117937011666"/>
				<Con from="input/2" weight="0.09098615469130852"/>
				<Con from="input/3" weight="-0.0018605713691873585"/>
				<Con from="input/4" weight="0.21786117712875586"/>
				<Con from="input/5" weight="0.1361404950726215"/>
				<Con from="input/6" weight="-0.1442248640924343"/>
				<Con from="input/7" weight="0.20049774618356653"/>
				<Con from="input/8" weight="-0.2634014867037694"/>
				<Con from="input/9" weight="-0.19473126791654483"/>
				<Con from="input/10" weight="0.23065200898579896"/>
				<Con from="input/11" weight="-0.023434476125975677"/>
				<Con from="input/12" weight="0.0037257147945202016"/>
				<Con from="input/13" weight="0.08980355337412022"/>
				<Con from="input/14" weight="0.1494984349254171"/>
				<Con from="input/15" weight="0.007747876541809333"/>
				<Con from="input/16" weight="-0.03718529855909368"/>
				<Con from="input/17" weight="-0.08656703802730784"/>
				<Con from="input/18" weight="-0.02821755791778591"/>
				<Con from="input/19" weight="-0.12894096107079492"/>
				<Con from="input/20" weight="0.08099990937163598"/>
			</Neuron>
			<Neuron id="1/43" bias="-0.09939004088084662">
				<Con from="input/1" weight="0.19947087147075615"/>
				<Con from="input/2" weight="-0.10215094190268087"/>
				<Con from="input/3" weight="0.09369025635621656"/>
				<Con from="input/4" weight="0.036784836412025713"/>
				<Con from="input/5" weight="0.11406390256122624"/>
				<Con from="input/6" weight="-0.15832241165938932"/>
				<Con from="input/7" weight="-0.14621436131541232"/>
				<Con from="input/8" weight="0.06409702533367898"/>
				<Con from="input/9" weight="0.03161455259611944"/>
				<Con from="input/10" weight="-0.1809194423732001"/>
				<Con from="input/11" weight="0.10845287580054086"/>
				<Con from="input/12" weight="0.04872542501295296"/>
				<Con from="input/13" weight="-0.2479803394833939"/>
				<Con from="input/14" weight="0.14546623139781853"/>
				<Con from="input/15" weight="0.20670325874701784"/>
				<Con from="input/16" weight="0.04519249604590054"/>
				<Con from="input/17" weight="-0.009008391507879998"/>
				<Con from="input/18" weight="-0.12374233246903386"/>
				<Con from="input/19" weight="-0.040238536751753304"/>
				<Con from="input/20" weight="0.03514554291032116"/>
			</Neuron>
			<Neuron id="1/44" bias="-0.22053210771589155">
				<Con from="input/1" weight="0.15394571711101854"/>
				<Con from="input/2" weight="0.06296002714101583"/>
				<Con from="input/3" weight="-0.0757213449592678"/>
				<Con from="input/4" weight="-0.09453809329196437"/>
				<Con from="input/5" weight="-0.02471807241904188"/>
				<Con from="input/6" weight="-0.17687310827699673"/>
				<Con from="input/7" weight="-0.08266244920754584"/>
				<Con from="input/8" weight="0.016735256727752973"/>
				<Con from="input/9" weight="0.1840457910266474"/>
				<Con from="input/10" weight="-0.1481292359916164"/>
				<Con from="input/11" weight="-0.024308195064948374"/>
				<Con from="input/12" weight="-0.004628516463933615"/>
				<Con from="input/13" weight="-0.08667131402925543"/>
				<Con from="input/14" weight="-0.19257673738255146"/>
				<Con from="input/15" weight="0.1791207927418434"/>
				<Con from="input/16" weight="-0.1150853193509291"/>
				<Con from="input/17" weight="-0.15867004571905802"/>
				<Con from="input/18" weight="0.022452709475843702"/>
				<Con from="input/19" weight="0.012162755749163012"/>
				<Con from="input/20" weight="0.045661095019114285"/>
			</Neuron>
			<Neuron id="1/45" bias="0.17257817735674089">
				<Con from="input/1" weight="-0.13929231930550298"/>
				<Con from="input/2" weight="0.006503560459136768"/>
				<Con from="input/3" weight="-0.12937761115464835"/>
				<Con from="input/4" weight="-0.07537018924635475"/>
				<Con from="input/5" weight="0.20428813537829574"/>
				<Con from="input/6" weight="0.02176228798248284"/>
				<Con from="input/7" weight="-0.20207762189795647"/>
				<Con from="input/8" weight="-0.18006677986764805"/>
				<Con from="input/9" weight="-0.08454560913704737"/>
				<Con from="input/10" weight="-0.10466977593253125"/>
				<Con from="input/11" weight="-0.2074598368891049"/>
				<Con from="input/12" weight="-0.12908802721378776"/>
				<Con from="input/13" weight="0.02555252146701678"/>
				<Con from="input/14" weight="-0.1646660434857941"/>
				<Con from="input/15" weight="0.11448494735961787"/>
				<Con from="input/16" weight="0.10240166982081113"/>
				<Con from="input/17" weight="0.17344969539101077"/>
				<Con from="input/18" weight="-0.03330905648577729"/>
				<Con from="input/19" weight="-0.1596878886147481"/>
				<Con from="input/20" weight="-0.29780106469042883"/>
			</Neuron>
			<Neuron id="1/46" bias="-0.08250987777042454">
				<Con from="input/1" weight="-0.030962330187011385"/>
				<Con from="input/2" weight="-0.06257513502940704"/>
				<Con from="input/3" weight="-0.21236285859526186"/>
				<Con from="input/4" weight="0.19830032537713754"/>
				<Con from="input/5" weight="0.0442152517131129"/>
				<Con from="input/6" weight="0.17931038866402854"/>
				<Con from="input/7" weight="0.059883797402007735"/>
				<Con from="input/8" weight="0.06209455413378413"/>
				<Con from="input/9" weight="-0.060357479838449184"/>
				<Con from="input/10" weight="0.07565595067174573"/>
				<Con from="input/11" weight="0.08462145713774136"/>
				<Con from="input/12" weight="0.23233735176455741"/>
				<Con from="input/13" weight="-0.06893434531845742"/>
				<Con from="input/14" weight="0.1238258995343692"/>
				<Con from="input/15" weight="-0.1356843810076084"/>
				<Con from="input/16" weight="0.06445926636142064"/>
				<Con from="input/17" weight="-0.15388798813166524"/>
				<Con from="input/18" weight="-0.07793617675009863"/>
				<Con from="input/19" weight="-0.10231672643176805"/>
				<Con from="input/20" weight="-0.1114300705059938"/>
			</Neuron>
			<Neuron id="1/47" bias="0.17830112584673874">
				<Con from="input/1" weight="-0.0850962673364962"/>
				<Con from="input/2" weight="0.1341671817495827"/>
				<Con from="input/3" weight="0.06762684423079279"/>
				<Con from="input/4" weight="0.1513803212556142"/>
				<Con from="input/5" weight="-0.09924307370310051"/>
				<Con from="input/6" weight="0.20988459597014508"/>
				<Con from="input/7" weight="-0.18659475647422377"/>
				<Con from="input/8" weight="-0.11117551906307091"/>
				<Con from="input/9" weight="0.06852532061579876"/>
				<Con from="input/10" weight="-0.12419469223398408"/>
				<Con from="input/11" weight="0.1281935881623049"/>
				<Con from="input/12" weight="-0.15364208400397997"/>
				<Con from="input/13" weight="0.21667402513028589"/>
				<Con from="input/14" weight="0.1392693238797602"/>
				<Con from="input/15" weight="-0.0216217682286034"/>
				<Con from="input/16" weight="-0.14921781022757505"/>
				<Con from="input/17" weight="0.13982078200622097"/>
				<Con from="input/18" weight="0.1781610528445011"/>
				<Con from="input/19" weight="-0.1572430883245051"/>
				<Con from="input/20" weight="-0.2123645665267018"/>
			</Neuron>
			<Neuron id="1/48" bias="0.021528987202771147">
				<Con from="input/1" weight="0.1805731248332629"/>
				<Con from="input/2" weight="0.02490187084103669"/>
				<Con from="input/3" weight="-0.061795512243114754"/>
				<Con from="input/4" weight="-0.18633055622942185"/>
				<Con from="input/5" weight="0.09763998873571995"/>
				<Con from="input/6" weight="0.1991375089741035"/>
				<Con from="input/7" weight="0.25145951294239094"/>
				<Con from="input/8" weight="0.21536318611914856"/>
				<Con from="input/9" weight="0.0880226119971496"/>
				<Con from="input/10" weight="0.17361339769559894"/>
				<Con from="input/11" weight="-0.03800403854792367"/>
				<Con from="input/12" weight="0.06543875734312969"/>
				<Con from="input/13" weight="0.05005869785643763"/>
				<Con from="input/14" weight="-0.002102849443348102"/>
				<Con from="input/15" weight="-0.003504420073913524"/>
				<Con from="input/16" weight="-0.011319837111431494"/>
				<Con from="input/17" weight="-0.13099869696307842"/>
				<Con from="input/18" weight="-0.12608984549346788"/>
				<Con from="input/19" weight="-0.05517259186193785"/>
				<Con from="input/20" weight="0.2177646550762897"/>
			</Neuron>
			<Neuron id="1/49" bias="-0.05402891201928282">
				<Con from="input/1" weight="0.026917535946585205"/>
				<Con from="input/2" weight="-0.01048418759409485"/>
				<Con from="input/3" weight="-0.21794923233161398"/>
				<Con from="input/4" weight="-0.03363713804625305"/>
				<Con from="input/5" weight="0.12938368220453875"/>
				<Con from="input/6" weight="0.22488855517452158"/>
				<Con from="input/7" weight="-0.10204778280267203"/>
				<Con from="input/8" weight="0.0971082701077045"/>
				<Con from="input/9" weight="0.17215466573146546"/>
				<Con from="input/10" weight="-0.05839359065543541"/>
				<Con from="input/11" weight="0.08050574920377573"/>
				<Con from="input/12" weight="-0.043878196331857855"/>
				<Con from="input/13" weight="-0.04707005889504415"/>
				<Con from="input/14" weight="-0.06605537555481782"/>
				<Con from="input/15" weight="0.13780357161818166"/>
				<Con from="input/16" weight="-0.08788427051864324"/>
				<Con from="input/17" weight="0.1647367745619846"/>
				<Con from="input/18" weight="-0.11253341875504938"/>
				<Con from="input/19" weight="0.16304309538938513"/>
				<Con from="input/20" weight="-0.1442713209107781"/>
			</Neuron>
			<Neuron id="1/50" bias="0.0924346344801414">
				<Con from="input/1" weight="0.18296695292966225"/>
				<Con from="input/2" weight="-0.05365804438499291"/>
				<Con from="input/3" weight="-0.15892601300788656"/>
				<Con from="input/4" weight="0.17253565489676662"/>
				<Con from="input/5" weight="0.20796546388996978"/>
				<Con from="input/6" weight="-0.022496785387930762"/>
				<Con from="input/7" weight="-0.08497139117399943"/>
				<Con from="input/8" weight="0.14131394076163883"/>
				<Con from="input/9" weight="0.17964424029258946"/>
				<Con from="input/10" weight="0.04349799611114068"/>
				<Con from="input/11" weight="-0.21444285883057082"/>
				<Con from="input/12" weight="1.5506397130995986E-4"/>
				<Con from="input/13" weight="0.13302418880557804"/>
				<Con from="input/14" weight="0.1268202218199972"/>
				<Con from="input/15" weight="-0.05937639934786831"/>
				<Con from="input/16" weight="0.1050320727031727"/>
				<Con from="input/17" weight="-0.15829446653208049"/>
				<Con from="input/18" weight="0.09908718119861942"/>
				<Con from="input/19" weight="0.07255871658472711"/>
				<Con from="input/20" weight="-0.0035691461301601978"/>
			</Neuron>
			<Neuron id="1/51" bias="0.13937500118081275">
				<Con from="input/1" weight="-0.13388827769975067"/>
				<Con from="input/2" weight="0.017712021717885617"/>
				<Con from="input/3" weight="0.023142776202378302"/>
				<Con from="input/4" weight="-0.18698987722692884"/>
				<Con from="input/5" weight="-0.14240157014824162"/>
				<Con from="input/6" weight="-0.09062335601739609"/>
				<Con from="input/7" weight="-0.04114132329978181"/>
				<Con from="input/8" weight="0.11250264422544314"/>
				<Con from="input/9" weight="-0.11756653796534146"/>
				<Con from="input/10" weight="0.19265031563404303"/>
				<Con from="input/11" weight="-0.044916072046418974"/>
				<Con from="input/12" weight="0.0650707862673776"/>
				<Con from="input/13" weight="0.07371663589726567"/>
				<Con from="input/14" weight="0.10656443561676333"/>
				<Con from="input/15" weight="-0.11502718297366771"/>
				<Con from="input/16" weight="0.09508537510859442"/>
				<Con from="input/17" weight="0.17812992233710281"/>
				<Con from="input/18" weight="-0.1152660417731358"/>
				<Con from="input/19" weight="-0.1686029737739259"/>
				<Con from="input/20" weight="0.248401778642104"/>
			</Neuron>
			<Neuron id="1/52" bias="-0.21223338921954962">
				<Con from="input/1" weight="-0.004656824285052723"/>
				<Con from="input/2" weight="-0.0031030375311539475"/>
				<Con from="input/3" weight="-0.05868574416632252"/>
				<Con from="input/4" weight="0.13690686836817392"/>
				<Con from="input/5" weight="-0.03036484621624848"/>
				<Con from="input/6" weight="-0.055513696542253604"/>
				<Con from="input/7" weight="-0.18374390492180473"/>
				<Con from="input/8" weight="-0.18635055679964288"/>
				<Con from="input/9" weight="-0.12847666957413223"/>
				<Con from="input/10" weight="0.1313646782068056"/>
				<Con from="input/11" weight="0.06763182468226255"/>
				<Con from="input/12" weight="0.06066769300842507"/>
				<Con from="input/13" weight="0.07158534110984337"/>
				<Con from="input/14" weight="-0.18368212442042228"/>
				<Con from="input/15" weight="0.1348706586385346"/>
				<Con from="input/16" weight="0.07801179526830052"/>
				<Con from="input/17" weight="-0.0862245427143115"/>
				<Con from="input/18" weight="0.11929420875761051"/>
				<Con from="input/19" weight="0.06271557662310014"/>
				<Con from="input/20" weight="-0.02458554100795848"/>
			</Neuron>
			<Neuron id="1/53" bias="-0.09517874953550333">
				<Con from="input/1" weight="-0.2464560887890459"/>
				<Con from="input/2" weight="-0.23228467560493263"/>
				<Con from="input/3" weight="0.17236812667197332"/>
				<Con from="input/4" weight="0.07480903018584478"/>
				<Con from="input/5" weight="0.12757864968330382"/>
				<Con from="input/6" weight="0.08917566174553475"/>
				<Con from="input/7" weight="0.08381172943225752"/>
				<Con from="input/8" weight="0.23279102118245362"/>
				<Con from="input/9" weight="-0.0022723128614789228"/>
				<Con from="input/10" weight="-0.128217349333415"/>
				<Con from="input/11" weight="-0.10701161568798082"/>
				<Con from="input/12" weight="0.04979220010770597"/>
				<Con from="input/13" weight="-0.19249691610061104"/>
				<Con from="input/14" weight="-0.03006651078174496"/>
				<Con from="input/15" weight="0.10096661089246103"/>
				<Con from="input/16" weight="0.20130292828093116"/>
				<Con from="input/17" weight="-0.19866097141250252"/>
				<Con from="input/18" weight="-0.25031626913520527"/>
				<Con from="input/19" weight="0.1851319178415217"/>
				<Con from="input/20" weight="0.04367821766834607"/>
			</Neuron>
			<Neuron id="1/54" bias="-0.14192761612529037">
				<Con from="input/1" weight="0.08321562090740012"/>
				<Con from="input/2" weight="0.05307062389107297"/>
				<Con from="input/3" weight="-0.06726799750986298"/>
				<Con from="input/4" weight="0.04339203637529243"/>
				<Con from="input/5" weight="0.027638315529419467"/>
				<Con from="input/6" weight="-0.07607897313674505"/>
				<Con from="input/7" weight="-0.24327054936401638"/>
				<Con from="input/8" weight="-0.1451566000702609"/>
				<Con from="input/9" weight="-0.28340070387436705"/>
				<Con from="input/10" weight="-0.10888188989620157"/>
				<Con from="input/11" weight="-0.1893364950735916"/>
				<Con from="input/12" weight="0.2592579646780025"/>
				<Con from="input/13" weight="0.16089813953557772"/>
				<Con from="input/14" weight="0.1983977256706779"/>
				<Con from="input/15" weight="0.18704038414145843"/>
				<Con from="input/16" weight="-0.12337569169439315"/>
				<Con from="input/17" weight="-0.13699191510865485"/>
				<Con from="input/18" weight="0.18966885677598838"/>
				<Con from="input/19" weight="0.2528874734920851"/>
				<Con from="input/20" weight="-0.26999317426700103"/>
			</Neuron>
			<Neuron id="1/55" bias="0.10208692370464756">
				<Con from="input/1" weight="-0.12054779987467366"/>
				<Con from="input/2" weight="0.09107037527966791"/>
				<Con from="input/3" weight="0.144975362918461"/>
				<Con from="input/4" weight="-0.013159709721791849"/>
				<Con from="input/5" weight="-0.13762784063543132"/>
				<Con from="input/6" weight="-0.12526309031361402"/>
				<Con from="input/7" weight="-0.12495481641500054"/>
				<Con from="input/8" weight="0.22740118490829211"/>
				<Con from="input/9" weight="-0.11923866424290165"/>
				<Con from="input/10" weight="0.24280565297796594"/>
				<Con from="input/11" weight="0.04867929733907457"/>
				<Con from="input/12" weight="0.077152006979548"/>
				<Con from="input/13" weight="0.062062458174193945"/>
				<Con from="input/14" weight="-0.10252979104583768"/>
				<Con from="input/15" weight="0.04593833341374394"/>
				<Con from="input/16" weight="-0.16558066792176993"/>
				<Con from="input/17" weight="0.14250740039321427"/>
				<Con from="input/18" weight="-0.04647630668813379"/>
				<Con from="input/19" weight="-0.21208271843495413"/>
				<Con from="input/20" weight="-0.005214288665266647"/>
			</Neuron>
			<Neuron id="1/56" bias="-0.1756552257244393">
				<Con from="input/1" weight="-0.15337665685826565"/>
				<Con from="input/2" weight="0.19179825577441356"/>
				<Con from="input/3" weight="-0.08573689440045883"/>
				<Con from="input/4" weight="0.001437507345441625"/>
				<Con from="input/5" weight="0.1477469222729176"/>
				<Con from="input/6" weight="-0.07702121993426365"/>
				<Con from="input/7" weight="0.15350699077700594"/>
				<Con from="input/8" weight="0.23171088689753377"/>
				<Con from="input/9" weight="0.17731405441255418"/>
				<Con from="input/10" weight="0.14544210389633258"/>
				<Con from="input/11" weight="-0.08216310275094846"/>
				<Con from="input/12" weight="0.030696322474996696"/>
				<Con from="input/13" weight="-0.040423935591674086"/>
				<Con from="input/14" weight="-0.12987018109432302"/>
				<Con from="input/15" weight="-0.04124863769494102"/>
				<Con from="input/16" weight="0.15394124890966288"/>
				<Con from="input/17" weight="-0.13070053025853848"/>
				<Con from="input/18" weight="0.16921223878804523"/>
				<Con from="input/19" weight="-0.034841942631523626"/>
				<Con from="input/20" weight="-0.09751159669049292"/>
			</Neuron>
			<Neuron id="1/57" bias="0.05921397945819131">
				<Con from="input/1" weight="0.1459181656079596"/>
				<Con from="input/2" weight="-0.11713116752735868"/>
				<Con from="input/3" weight="0.22703940691083865"/>
				<Con from="input/4" weight="0.10985182359454715"/>
				<Con from="input/5" weight="-0.08494710760264253"/>
				<Con from="input/6" weight="0.06525103715596971"/>
				<Con from="input/7" weight="0.04882056172301137"/>
				<Con from="input/8" weight="0.022188145373146492"/>
				<Con from="input/9" weight="-0.032147818329060746"/>
				<Con from="input/10" weight="-0.1340777433169436"/>
				<Con from="input/11" weight="-0.03408329030030714"/>
				<Con from="input/12" weight="-0.04658661220467906"/>
				<Con from="input/13" weight="0.1379563207883329"/>
				<Con from="input/14" weight="0.11506448134282225"/>
				<Con from="input/15" weight="0.012572755345338511"/>
				<Con from="input/16" weight="0.04433642816384883"/>
				<Con from="input/17" weight="-0.15903766038324127"/>
				<Con from="input/18" weight="-0.018843269813698528"/>
				<Con from="input/19" weight="-0.12647242000169173"/>
				<Con from="input/20" weight="0.1580539885713401"/>
			</Neuron>
			<Neuron id="1/58" bias="0.14941443430431484">
				<Con from="input/1" weight="0.23243814361340617"/>
				<Con from="input/2" weight="0.03483545901041712"/>
				<Con from="input/3" weight="0.04827246330973588"/>
				<Con from="input/4" weight="0.03491093120522681"/>
				<Con from="input/5" weight="-0.15557611638423471"/>
				<Con from="input/6" weight="-0.09556606339964449"/>
				<Con from="input/7" weight="0.17899440935513525"/>
				<Con from="input/8" weight="0.14231300345876832"/>
				<Con from="input/9" weight="0.17122091890042643"/>
				<Con from="input/10" weight="-0.05817301633568382"/>
				<Con from="input/11" weight="0.1547563677689389"/>
				<Con from="input/12" weight="-0.21619804313295168"/>
				<Con from="input/13" weight="0.06848614698868999"/>
				<Con from="input/14" weight="-0.0561984641498291"/>
				<Con from="input/15" weight="-0.010353840964628247"/>
				<Con from="input/16" weight="0.020714317697014557"/>
				<Con from="input/17" weight="-0.17060620812121463"/>
				<Con from="input/18" weight="0.07518640295715752"/>
				<Con from="input/19" weight="-0.0887065213227662"/>
				<Con from="input/20" weight="0.05962108062195227"/>
			</Neuron>
			<Neuron id="1/59" bias="0.19962510418899237">
				<Con from="input/1" weight="0.059073916178950685"/>
				<Con from="input/2" weight="-0.1025065180800041"/>
				<Con from="input/3" weight="-0.13627084577742907"/>
				<Con from="input/4" weight="-0.002860371637369167"/>
				<Con from="input/5" weight="0.06745579243883901"/>
				<Con from="input/6" weight="-0.07681189993761832"/>
				<Con from="input/7" weight="-0.17171861140753944"/>
				<Con from="input/8" weight="-0.06448645550498078"/>
				<Con from="input/9" weight="-0.07636458649359212"/>
				<Con from="input/10" weight="0.17407173357374636"/>
				<Con from="input/11" weight="-0.004816455506915561"/>
				<Con from="input/12" weight="0.025151767240909294"/>
				<Con from="input/13" weight="-0.06022408356852731"/>
				<Con from="input/14" weight="-0.20794103338983425"/>
				<Con from="input/15" weight="0.1331722184447221"/>
				<Con from="input/16" weight="0.18092340429727352"/>
				<Con from="input/17" weight="-0.022212726991470658"/>
				<Con from="input/18" weight="0.1463997235800158"/>
				<Con from="input/19" weight="0.0758177857364573"/>
				<Con from="input/20" weight="0.08996347646448985"/>
			</Neuron>
			<Neuron id="1/60" bias="0.003538929441228738">
				<Con from="input/1" weight="-0.014193369489542793"/>
				<Con from="input/2" weight="0.11781010080449693"/>
				<Con from="input/3" weight="-0.012556739422651208"/>
				<Con from="input/4" weight="-0.21317005832914554"/>
				<Con from="input/5" weight="-0.017378525607775187"/>
				<Con from="input/6" weight="0.11846501005950053"/>
				<Con from="input/7" weight="-0.025981341308811814"/>
				<Con from="input/8" weight="-0.2548302687822194"/>
				<Con from="input/9" weight="0.11919524119349488"/>
				<Con from="input/10" weight="0.27410670018892247"/>
				<Con from="input/11" weight="-0.08972880521088385"/>
				<Con from="input/12" weight="-0.1690669985054681"/>
				<Con from="input/13" weight="0.12979711299248525"/>
				<Con from="input/14" weight="-0.10812056199010879"/>
				<Con from="input/15" weight="-0.0353208711317385"/>
				<Con from="input/16" weight="0.12674162769402872"/>
				<Con from="input/17" weight="-0.0018592406851438287"/>
				<Con from="input/18" weight="-0.1220914709110575"/>
				<Con from="input/19" weight="-0.12056876276721956"/>
				<Con from="input/20" weight="0.1647909824707139"/>
			</Neuron>
			<Neuron id="1/61" bias="0.09112887256836694">
				<Con from="input/1" weight="-0.009240832990044495"/>
				<Con from="input/2" weight="0.11023438477008941"/>
				<Con from="input/3" weight="-0.0429638357504088"/>
				<Con from="input/4" weight="0.018432288567700527"/>
				<Con from="input/5" weight="-0.032698752357302116"/>
				<Con from="input/6" weight="-0.16710003243765872"/>
				<Con from="input/7" weight="-0.17904761989583853"/>
				<Con from="input/8" weight="-0.2333164060728827"/>
				<Con from="input/9" weight="0.044106732915455166"/>
				<Con from="input/10" weight="0.009969162223686103"/>
				<Con from="input/11" weight="-0.14732332500593578"/>
				<Con from="input/12" weight="-0.023445036753548344"/>
				<Con from="input/13" weight="0.21328757170685836"/>
				<Con from="input/14" weight="-0.04552835866323872"/>
				<Con from="input/15" weight="-0.23187440877710938"/>
				<Con from="input/16" weight="-0.03834898842546437"/>
				<Con from="input/17" weight="-0.1087339461782273"/>
				<Con from="input/18" weight="0.13002931987602634"/>
				<Con from="input/19" weight="0.13600343877562765"/>
				<Con from="input/20" weight="0.2018579647607991"/>
			</Neuron>
			<Neuron id="1/62" bias="-0.09533127692679336">
				<Con from="input/1" weight="0.1447421940455055"/>
				<Con from="input/2" weight="0.11197363838591386"/>
				<Con from="input/3" weight="-0.11711002492567792"/>
				<Con from="input/4" weight="0.021025187014603753"/>
				<Con from="input/5" weight="0.2250435671314694"/>
				<Con from="input/6" weight="0.1341166203776222"/>
				<Con from="input/7" weight="0.04263790056286712"/>
				<Con from="input/8" weight="-0.07912734566365191"/>
				<Con from="input/9" weight="0.11162685757659462"/>
				<Con from="input/10" weight="-0.12833918736665828"/>
				<Con from="input/11" weight="0.07134718132301568"/>
				<Con from="input/12" weight="0.18145761040107297"/>
				<Con from="input/13" weight="0.08787802433483241"/>
				<Con from="input/14" weight="-0.2070657863967844"/>
				<Con from="input/15" weight="0.009634091020995297"/>
				<Con from="input/16" weight="-0.1929977010208793"/>
				<Con from="input/17" weight="-0.19330167652142458"/>
				<Con from="input/18" weight="0.03128106160730658"/>
				<Con from="input/19" weight="0.11007723252558552"/>
				<Con from="input/20" weight="-0.09751723721630176"/>
			</Neuron>
			<Neuron id="1/63" bias="-0.19463303309470514">
				<Con from="input/1" weight="0.15695786856021463"/>
				<Con from="input/2" weight="-0.06425702347912782"/>
				<Con from="input/3" weight="0.0964012063032994"/>
				<Con from="input/4" weight="0.07641551190446493"/>
				<Con from="input/5" weight="0.21764247291983307"/>
				<Con from="input/6" weight="0.05726359123436869"/>
				<Con from="input/7" weight="-0.011055069245045505"/>
				<Con from="input/8" weight="0.1170391673029407"/>
				<Con from="input/9" weight="-0.1887885042539956"/>
				<Con from="input/10" weight="-0.10779705549324917"/>
				<Con from="input/11" weight="0.1623693387077217"/>
				<Con from="input/12" weight="0.10539329954658669"/>
				<Con from="input/13" weight="0.08651486097103248"/>
				<Con from="input/14" weight="-0.1546804366166051"/>
				<Con from="input/15" weight="-0.15389485747458848"/>
				<Con from="input/16" weight="-0.16084804288162272"/>
				<Con from="input/17" weight="-0.16614430577059022"/>
				<Con from="input/18" weight="-0.0918523050713477"/>
				<Con from="input/19" weight="-0.2151336018401737"/>
				<Con from="input/20" weight="-0.04392445036486367"/>
			</Neuron>
			<Neuron id="1/64" bias="-0.09083058681080027">
				<Con from="input/1" weight="0.07684880411948943"/>
				<Con from="input/2" weight="-0.08122920791557535"/>
				<Con from="input/3" weight="-0.028624462563142345"/>
				<Con from="input/4" weight="0.12369067597227494"/>
				<Con from="input/5" weight="0.06051880341832146"/>
				<Con from="input/6" weight="0.059075873200090084"/>
				<Con from="input/7" weight="-0.08048477318125244"/>
				<Con from="input/8" weight="0.042330047052914814"/>
				<Con from="input/9" weight="0.13663255726583542"/>
				<Con from="input/10" weight="0.12454605289064463"/>
				<Con from="input/11" weight="0.16001384233320448"/>
				<Con from="input/12" weight="-0.10424408862752779"/>
				<Con from="input/13" weight="0.2098337421120682"/>
				<Con from="input/14" weight="-0.10839865396340075"/>
				<Con from="input/15" weight="0.11094780523034618"/>
				<Con from="input/16" weight="0.09642448357633569"/>
				<Con from="input/17" weight="0.12128591418160287"/>
				<Con from="input/18" weight="0.12645785934153464"/>
				<Con from="input/19" weight="-0.052124424233034414"/>
				<Con from="input/20" weight="-0.19783475025152333"/>
			</Neuron>
			<Neuron id="1/65" bias="-0.048019217963274734">
				<Con from="input/1" weight="0.005920079868832444"/>
				<Con from="input/2" weight="-0.1618640777664206"/>
				<Con from="input/3" weight="-0.13336348042195542"/>
				<Con from="input/4" weight="-0.005506881892799654"/>
				<Con from="input/5" weight="-0.0965898618912069"/>
				<Con from="input/6" weight="-0.01754772627262864"/>
				<Con from="input/7" weight="-0.20044214571878144"/>
				<Con from="input/8" weight="0.018723483478013506"/>
				<Con from="input/9" weight="0.13884374855416876"/>
				<Con from="input/10" weight="0.034142064469929484"/>
				<Con from="input/11" weight="0.11745768478553259"/>
				<Con from="input/12" weight="-0.11692555177868977"/>
				<Con from="input/13" weight="0.08061916745236333"/>
				<Con from="input/14" weight="0.19274141602705244"/>
				<Con from="input/15" weight="0.218468446263568"/>
				<Con from="input/16" weight="-0.041500650011032876"/>
				<Con from="input/17" weight="-0.03673815009826475"/>
				<Con from="input/18" weight="0.20135453746428117"/>
				<Con from="input/19" weight="0.11492099408655546"/>
				<Con from="input/20" weight="0.07499478778193588"/>
			</Neuron>
			<Neuron id="1/66" bias="-0.12798293739333383">
				<Con from="input/1" weight="0.0031901014655294226"/>
				<Con from="input/2" weight="0.0948206788405906"/>
				<Con from="input/3" weight="-0.16962098345589724"/>
				<Con from="input/4" weight="0.0778160141491555"/>
				<Con from="input/5" weight="0.18533953412517448"/>
				<Con from="input/6" weight="0.131541741109434"/>
				<Con from="input/7" weight="0.03626901016324093"/>
				<Con from="input/8" weight="-0.047399530675129364"/>
				<Con from="input/9" weight="0.08550380858044733"/>
				<Con from="input/10" weight="-0.08205640785525214"/>
				<Con from="input/11" weight="0.2119437899096943"/>
				<Con from="input/12" weight="-0.11167831763789997"/>
				<Con from="input/13" weight="0.05789423408014881"/>
				<Con from="input/14" weight="0.09529743910305948"/>
				<Con from="input/15" weight="0.05083144705288354"/>
				<Con from="input/16" weight="-0.14166911251720307"/>
				<Con from="input/17" weight="-0.12172456051170351"/>
				<Con from="input/18" weight="-0.17834656988892397"/>
				<Con from="input/19" weight="0.18309854127444444"/>
				<Con from="input/20" weight="0.16034335305691097"/>
			</Neuron>
			<Neuron id="1/67" bias="0.18999799995736652">
				<Con from="input/1" weight="0.14511761315867147"/>
				<Con from="input/2" weight="-0.09044617521194641"/>
				<Con from="input/3" weight="-0.15288293552785595"/>
				<Con from="input/4" weight="0.094267278166843"/>
				<Con from="input/5" weight="0.10058475017885883"/>
				<Con from="input/6" weight="-0.05469758155927599"/>
				<Con from="input/7" weight="0.010464899903839423"/>
				<Con from="input/8" weight="-0.12820625566708424"/>
				<Con from="input/9" weight="0.18038385093160608"/>
				<Con from="input/10" weight="0.08092732974712753"/>
				<Con from="input/11" weight="-0.07472922804887018"/>
				<Con from="input/12" weight="-0.14460195695776842"/>
				<Con from="input/13" weight="-0.16984010827626433"/>
				<Con from="input/14" weight="-0.15489080282184858"/>
				<Con from="input/15" weight="0.04677168117231637"/>
				<Con from="input/16" weight="0.17614557415263768"/>
				<Con from="input/17" weight="0.08464021306048286"/>
				<Con from="input/18" weight="0.09769088534022444"/>
				<Con from="input/19" weight="-0.027348272255327457"/>
				<Con from="input/20" weight="-0.18186656402526152"/>
			</Neuron>
			<Neuron id="1/68" bias="0.0035194841676462977">
				<Con from="input/1" weight="0.09941660680441974"/>
				<Con from="input/2" weight="-0.20569301526546951"/>
				<Con from="input/3" weight="0.1504410391675853"/>
				<Con from="input/4" weight="-0.013758278014397484"/>
				<Con from="input/5" weight="-0.1732986942836237"/>
				<Con from="input/6" weight="-0.21034350176842026"/>
				<Con from="input/7" weight="0.08187278493756638"/>
				<Con from="input/8" weight="0.12945717514040167"/>
				<Con from="input/9" weight="0.0883384474829483"/>
				<Con from="input/10" weight="0.05190984153304898"/>
				<Con from="input/11" weight="-0.19526565239957372"/>
				<Con from="input/12" weight="-0.11100430790139959"/>
				<Con from="input/13" weight="0.13415706620120005"/>
				<Con from="input/14" weight="-0.012774320268693861"/>
				<Con from="input/15" weight="-0.09650956013187506"/>
				<Con from="input/16" weight="-0.0407533092302161"/>
				<Con from="input/17" weight="0.019166383144198242"/>
				<Con from="input/18" weight="-0.02068841181122611"/>
				<Con from="input/19" weight="0.23073205477730863"/>
				<Con from="input/20" weight="-0.04735406703152042"/>
			</Neuron>
			<Neuron id="1/69" bias="-0.23451596252475373">
				<Con from="input/1" weight="3.0005027693551364E-4"/>
				<Con from="input/2" weight="-0.16369058092649622"/>
				<Con from="input/3" weight="0.02227560969413133"/>
				<Con from="input/4" weight="-0.06254495573476183"/>
				<Con from="input/5" weight="0.11207483255753987"/>
				<Con from="input/6" weight="0.116323238700807"/>
				<Con from="input/7" weight="0.0025480892744872865"/>
				<Con from="input/8" weight="0.04786083289654236"/>
				<Con from="input/9" weight="0.10463809234253858"/>
				<Con from="input/10" weight="-0.008265147912656295"/>
				<Con from="input/11" weight="0.013477351714411386"/>
				<Con from="input/12" weight="0.22057406959907627"/>
				<Con from="input/13" weight="0.04628398093528578"/>
				<Con from="input/14" weight="-0.16344525237644095"/>
				<Con from="input/15" weight="-0.015275751468724137"/>
				<Con from="input/16" weight="0.19444615422786304"/>
				<Con from="input/17" weight="-0.10050545295406176"/>
				<Con from="input/18" weight="-0.2418852803533367"/>
				<Con from="input/19" weight="-0.1303145634839239"/>
				<Con from="input/20" weight="0.09516829447067615"/>
			</Neuron>
			<Neuron id="1/70" bias="-0.07331287650133848">
				<Con from="input/1" weight="0.023819312333204314"/>
				<Con from="input/2" weight="-0.12946997095656662"/>
				<Con from="input/3" weight="-0.15673874927113576"/>
				<Con from="input/4" weight="-0.2223869604304836"/>
				<Con from="input/5" weight="0.07759569906392375"/>
				<Con from="input/6" weight="-0.09801142078255778"/>
				<Con from="input/7" weight="-0.051362238213633345"/>
				<Con from="input/8" weight="0.11225579753270837"/>
				<Con from="input/9" weight="0.03338281378510003"/>
				<Con from="input/10" weight="-0.12795990864630533"/>
				<Con from="input/11" weight="-0.13856176149684413"/>
				<Con from="input/12" weight="0.23577490722272101"/>
				<Con from="input/13" weight="0.1996102302009511"/>
				<Con from="input/14" weight="-0.01979582213697726"/>
				<Con from="input/15" weight="-0.03665282256241177"/>
				<Con from="input/16" weight="0.021387440051242167"/>
				<Con from="input/17" weight="-0.10753097713246272"/>
				<Con from="input/18" weight="0.04896054477544887"/>
				<Con from="input/19" weight="-0.15779297244673987"/>
				<Con from="input/20" weight="0.11394478634671931"/>
			</Neuron>
			<Neuron id="1/71" bias="0.19535104837485584">
				<Con from="input/1" weight="0.11746922306415526"/>
				<Con from="input/2" weight="0.11671900247445789"/>
				<Con from="input/3" weight="0.18925312077485146"/>
				<Con from="input/4" weight="-0.015278119645993916"/>
				<Con from="input/5" weight="-0.06841897231336419"/>
				<Con from="input/6" weight="-0.07335801242983123"/>
				<Con from="input/7" weight="0.03486064062589245"/>
				<Con from="input/8" weight="-0.2144975188851159"/>
				<Con from="input/9" weight="-0.06607338571199471"/>
				<Con from="input/10" weight="0.03898212282364154"/>
				<Con from="input/11" weight="-0.0712222962389134"/>
				<Con from="input/12" weight="0.16022706322395108"/>
				<Con from="input/13" weight="0.18334786829982078"/>
				<Con from="input/14" weight="-0.18418475483777416"/>
				<Con from="input/15" weight="-0.1327428993902991"/>
				<Con from="input/16" weight="0.05868752816367099"/>
				<Con from="input/17" weight="0.18122751015797575"/>
				<Con from="input/18" weight="0.13691516836365614"/>
				<Con from="input/19" weight="-0.2768240012606249"/>
				<Con from="input/20" weight="0.1838731771020895"/>
			</Neuron>
			<Neuron id="1/72" bias="0.036643744220336005">
				<Con from="input/1" weight="0.030265179162357686"/>
				<Con from="input/2" weight="-0.20122717047113925"/>
				<Con from="input/3" weight="0.0758811815232762"/>
				<Con from="input/4" weight="0.22232565980350097"/>
				<Con from="input/5" weight="-0.083274656341709"/>
				<Con from="input/6" weight="0.04228454692691636"/>
				<Con from="input/7" weight="-0.0424497474802983"/>
				<Con from="input/8" weight="-0.18943520305857084"/>
				<Con from="input/9" weight="0.19441271297707077"/>
				<Con from="input/10" weight="0.09381518222636417"/>
				<Con from="input/11" weight="0.06343131122708912"/>
				<Con from="input/12" weight="-0.05846550910158934"/>
				<Con from="input/13" weight="0.08395677788695416"/>
				<Con from="input/14" weight="0.0715200888858104"/>
				<Con from="input/15" weight="-0.005353047278406843"/>
				<Con from="input/16" weight="0.047364003200929296"/>
				<Con from="input/17" weight="-0.0052740673445445"/>
				<Con from="input/18" weight="-0.17334620702529882"/>
				<Con from="input/19" weight="-0.13109509234858946"/>
				<Con from="input/20" weight="0.04261860688773808"/>
			</Neuron>
			<Neuron id="1/73" bias="0.12230169286485834">
				<Con from="input/1" weight="-0.16614773734169377"/>
				<Con from="input/2" weight="-0.10023666755879879"/>
				<Con from="input/3" weight="0.15046631128844556"/>
				<Con from="input/4" weight="-0.05706227691720686"/>
				<Con from="input/5" weight="0.20352064927641578"/>
				<Con from="input/6" weight="0.008650212272373281"/>
				<Con from="input/7" weight="-0.015175282880232902"/>
				<Con from="input/8" weight="0.24611255639501345"/>
				<Con from="input/9" weight="-0.013559144610121783"/>
				<Con from="input/10" weight="-0.17192032021480452"/>
				<Con from="input/11" weight="-0.12252324506503554"/>
				<Con from="input/12" weight="0.23063763883276547"/>
				<Con from="input/13" weight="-0.014410696685666809"/>
				<Con from="input/14" weight="0.10037397391839917"/>
				<Con from="input/15" weight="-0.059922700741913186"/>
				<Con from="input/16" weight="-0.1928541906343807"/>
				<Con from="input/17" weight="0.08301146080743102"/>
				<Con from="input/18" weight="-0.007905233570171132"/>
				<Con from="input/19" weight="-0.18491610964607338"/>
				<Con from="input/20" weight="-0.10991359598334854"/>
			</Neuron>
			<Neuron id="1/74" bias="0.09700639125171286">
				<Con from="input/1" weight="-0.15527982946624866"/>
				<Con from="input/2" weight="-0.018853601267207407"/>
				<Con from="input/3" weight="-0.010516294397079127"/>
				<Con from="input/4" weight="0.15910341635905187"/>
				<Con from="input/5" weight="0.1905994809303532"/>
				<Con from="input/6" weight="0.0011785533634984262"/>
				<Con from="input/7" weight="-0.14086811840278396"/>
				<Con from="input/8" weight="-0.10031900763174649"/>
				<Con from="input/9" weight="0.18214042400021943"/>
				<Con from="input/10" weight="0.22081132905906586"/>
				<Con from="input/11" weight="-0.07065437990773907"/>
				<Con from="input/12" weight="0.06387803957045039"/>
				<Con from="input/13" weight="-0.19406406656897976"/>
				<Con from="input/14" weight="-0.1552969740423968"/>
				<Con from="input/15" weight="0.038879481217266094"/>
				<Con from="input/16" weight="-0.17286583042288842"/>
				<Con from="input/17" weight="0.13415997995129517"/>
				<Con from="input/18" weight="-0.025341953288988885"/>
				<Con from="input/19" weight="-0.1365219060981057"/>
				<Con from="input/20" weight="0.208420413880761"/>
			</Neuron>
			<Neuron id="1/75" bias="-0.1978751334733194">
				<Con from="input/1" weight="0.2599685990626472"/>
				<Con from="input/2" weight="0.12283155173774854"/>
				<Con from="input/3" weight="0.20391055478332656"/>
				<Con from="input/4" weight="-0.1106201571056977"/>
				<Con from="input/5" weight="0.13614738201740845"/>
				<Con from="input/6" weight="-0.16350133510827014"/>
				<Con from="input/7" weight="0.11621569305809878"/>
				<Con from="input/8" weight="-0.21792734860379742"/>
				<Con from="input/9" weight="-0.013565901618694842"/>
				<Con from="input/10" weight="0.04080642076370271"/>
				<Con from="input/11" weight="-0.03056806339586749"/>
				<Con from="input/12" weight="-0.03699215305944226"/>
				<Con from="input/13" weight="0.0722938804322927"/>
				<Con from="input/14" weight="0.1840817430518334"/>
				<Con from="input/15" weight="0.13406406737256038"/>
				<Con from="input/16" weight="-0.09418619817732525"/>
				<Con from="input/17" weight="-0.19454419600267944"/>
				<Con from="input/18" weight="0.08559209475225323"/>
				<Con from="input/19" weight="-0.043479429360315715"/>
				<Con from="input/20" weight="-0.25832886673672567"/>
			</Neuron>
			<Neuron id="1/76" bias="0.16923701577687217">
				<Con from="input/1" weight="-0.10358329470490557"/>
				<Con from="input/2" weight="0.19404400261405075"/>
				<Con from="input/3" weight="-0.13714554019862962"/>
				<Con from="input/4" weight="0.09123422536894024"/>
				<Con from="input/5" weight="0.07172709760143402"/>
				<Con from="input/6" weight="-0.16724848480908902"/>
				<Con from="input/7" weight="0.09824904459401536"/>
				<Con from="input/8" weight="-0.22392751682687265"/>
				<Con from="input/9" weight="-0.017238653901939405"/>
				<Con from="input/10" weight="-0.047690118751665275"/>
				<Con from="input/11" weight="0.10195827995860172"/>
				<Con from="input/12" weight="0.12857872740619722"/>
				<Con from="input/13" weight="0.04019488974442288"/>
				<Con from="input/14" weight="0.034002822627892136"/>
				<Con from="input/15" weight="0.032127878284672416"/>
				<Con from="input/16" weight="-0.19357771499796006"/>
				<Con from="input/17" weight="-0.1619692459827802"/>
				<Con from="input/18" weight="0.12883947055356226"/>
				<Con from="input/19" weight="-0.13606292891766245"/>
				<Con from="input/20" weight="0.39516150022637003"/>
			</Neuron>
			<Neuron id="1/77" bias="-0.18123571461205712">
				<Con from="input/1" weight="0.13041621368485865"/>
				<Con from="input/2" weight="0.1420635236770663"/>
				<Con from="input/3" weight="0.17226672936533607"/>
				<Con from="input/4" weight="0.16513127226800373"/>
				<Con from="input/5" weight="-0.0463980807844491"/>
				<Con from="input/6" weight="-0.04268113022394151"/>
				<Con from="input/7" weight="0.19216124693445222"/>
				<Con from="input/8" weight="-0.12609244165202133"/>
				<Con from="input/9" weight="0.1518572889596657"/>
				<Con from="input/10" weight="0.06911622634503051"/>
				<Con from="input/11" weight="0.1802902260531333"/>
				<Con from="input/12" weight="0.009006045314140747"/>
				<Con from="input/13" weight="0.06587527197474324"/>
				<Con from="input/14" weight="0.10153267213251456"/>
				<Con from="input/15" weight="0.16344711000950835"/>
				<Con from="input/16" weight="-0.16691554081129406"/>
				<Con from="input/17" weight="0.22950232651903701"/>
				<Con from="input/18" weight="0.018784192504428112"/>
				<Con from="input/19" weight="-0.0834322151404818"/>
				<Con from="input/20" weight="-0.18511724809077318"/>
			</Neuron>
			<Neuron id="1/78" bias="-0.08843682455308505">
				<Con from="input/1" weight="0.05536960494318404"/>
				<Con from="input/2" weight="-0.21067288007905421"/>
				<Con from="input/3" weight="0.09454351706432787"/>
				<Con from="input/4" weight="-0.12330450363040622"/>
				<Con from="input/5" weight="-0.05274193347800733"/>
				<Con from="input/6" weight="-0.1653821932463277"/>
				<Con from="input/7" weight="-0.02907258469349328"/>
				<Con from="input/8" weight="0.14445088129660844"/>
				<Con from="input/9" weight="0.06150308492359655"/>
				<Con from="input/10" weight="0.04953694514017611"/>
				<Con from="input/11" weight="-0.05188215855593029"/>
				<Con from="input/12" weight="0.05494301428454392"/>
				<Con from="input/13" weight="0.04975685887031984"/>
				<Con from="input/14" weight="0.005340563255954989"/>
				<Con from="input/15" weight="-0.04419643502529076"/>
				<Con from="input/16" weight="0.15264049007799926"/>
				<Con from="input/17" weight="0.2075477966452428"/>
				<Con from="input/18" weight="0.10816617681708461"/>
				<Con from="input/19" weight="0.18452607362609486"/>
				<Con from="input/20" weight="0.26319014816952546"/>
			</Neuron>
			<Neuron id="1/79" bias="-0.17278433864262224">
				<Con from="input/1" weight="0.16697209955361547"/>
				<Con from="input/2" weight="0.1632352554972509"/>
				<Con from="input/3" weight="0.18117886453133517"/>
				<Con from="input/4" weight="0.1641094855536068"/>
				<Con from="input/5" weight="-0.08218914544473063"/>
				<Con from="input/6" weight="-0.0949919332420659"/>
				<Con from="input/7" weight="-0.02018037151042476"/>
				<Con from="input/8" weight="0.16835586201987138"/>
				<Con from="input/9" weight="-0.15492906294810838"/>
				<Con from="input/10" weight="-0.12320129310928857"/>
				<Con from="input/11" weight="-0.08534975702556297"/>
				<Con from="input/12" weight="-0.0227911912722952"/>
				<Con from="input/13" weight="0.006849711453940804"/>
				<Con from="input/14" weight="0.027484771557543704"/>
				<Con from="input/15" weight="0.19185750869996535"/>
				<Con from="input/16" weight="0.021442381489404954"/>
				<Con from="input/17" weight="-0.16124950741383717"/>
				<Con from="input/18" weight="-0.1605706439667797"/>
				<Con from="input/19" weight="-0.09076553466022634"/>
				<Con from="input/20" weight="-0.13705293300186766"/>
			</Neuron>
			<Neuron id="1/80" bias="0.059880954242657686">
				<Con from="input/1" weight="-0.05178575918418294"/>
				<Con from="input/2" weight="0.020062750926261128"/>
				<Con from="input/3" weight="0.19479660780492714"/>
				<Con from="input/4" weight="0.08262153938055314"/>
				<Con from="input/5" weight="-0.17150499489175206"/>
				<Con from="input/6" weight="-0.17588429519185722"/>
				<Con from="input/7" weight="-0.08739058656012384"/>
				<Con from="input/8" weight="0.18517092998491283"/>
				<Con from="input/9" weight="0.16949662231499446"/>
				<Con from="input/10" weight="0.007938918793659879"/>
				<Con from="input/11" weight="-0.1006804935507039"/>
				<Con from="input/12" weight="0.07314696388493967"/>
				<Con from="input/13" weight="-0.03661238830740309"/>
				<Con from="input/14" weight="-0.11829619458366533"/>
				<Con from="input/15" weight="0.09118454807430025"/>
				<Con from="input/16" weight="0.22308429968155458"/>
